<?xml version="1.0"?>
<opencv_storage>
<cascade>
  <stageType>BOOST</stageType>
  <featureType>HAAR</featureType>
  <height>24</height>
  <width>24</width>
  <stageParams>
    <boostType>GAB</boostType>
    <minHitRate>9.9500000476837158e-01</minHitRate>
    <maxFalseAlarm>5.0000000000000000e-01</maxFalseAlarm>
    <weightTrimRate>9.4999998807907104e-01</weightTrimRate>
    <maxDepth>1</maxDepth>
    <maxWeakCount>100</maxWeakCount></stageParams>
  <featureParams>
    <maxCatCount>0</maxCatCount>
    <featSize>1</featSize>
    <mode>BASIC</mode></featureParams>
  <stageNum>13</stageNum>
  <stages>
    <!-- stage 0 -->
    <_>
      <maxWeakCount>2</maxWeakCount>
      <stageThreshold>-2.2018145024776459e-01</stageThreshold>
      <weakClassifiers>
        <_>
          <internalNodes>
            0 -1 36 -3.1236589420586824e-03</internalNodes>
          <leafValues>
            7.4744659662246704e-01 -8.5482388734817505e-01</leafValues></_>
        <_>
          <internalNodes>
            0 -1 6 4.9022724851965904e-03</internalNodes>
          <leafValues>
            -9.5516121387481689e-01 6.3464242219924927e-01</leafValues></_></weakClassifiers></_>
    <!-- stage 1 -->
    <_>
      <maxWeakCount>2</maxWeakCount>
      <stageThreshold>-3.7948358058929443e-01</stageThreshold>
      <weakClassifiers>
        <_>
          <internalNodes>
            0 -1 25 5.2141193300485611e-03</internalNodes>
          <leafValues>
            -9.0659898519515991e-01 6.0795456171035767e-01</leafValues></_>
        <_>
          <internalNodes>
            0 -1 7 -1.7484668642282486e-02</internalNodes>
          <leafValues>
            5.2711540460586548e-01 -9.4369685649871826e-01</leafValues></_></weakClassifiers></_>
    <!-- stage 2 -->
    <_>
      <maxWeakCount>2</maxWeakCount>
      <stageThreshold>-3.4931463003158569e-01</stageThreshold>
      <weakClassifiers>
        <_>
          <internalNodes>
            0 -1 33 8.9658814249560237e-04</internalNodes>
          <leafValues>
            -8.2529926300048828e-01 5.8848798274993896e-01</leafValues></_>
        <_>
          <internalNodes>
            0 -1 16 -2.6371423155069351e-04</internalNodes>
          <leafValues>
            4.7598463296890259e-01 -9.3100935220718384e-01</leafValues></_></weakClassifiers></_>
    <!-- stage 3 -->
    <_>
      <maxWeakCount>4</maxWeakCount>
      <stageThreshold>-6.5696579217910767e-01</stageThreshold>
      <weakClassifiers>
        <_>
          <internalNodes>
            0 -1 29 6.9394912570714951e-03</internalNodes>
          <leafValues>
            -8.6150568723678589e-01 4.7829428315162659e-01</leafValues></_>
        <_>
          <internalNodes>
            0 -1 23 8.1306521315127611e-04</internalNodes>
          <leafValues>
            -8.0487030744552612e-01 5.4247671365737915e-01</leafValues></_>
        <_>
          <internalNodes>
            0 -1 22 -2.9007263947278261e-04</internalNodes>
          <leafValues>
            4.7950395941734314e-01 -7.9039156436920166e-01</leafValues></_>
        <_>
          <internalNodes>
            0 -1 10 2.4425510782748461e-03</internalNodes>
          <leafValues>
            -7.9209172725677490e-01 5.2990621328353882e-01</leafValues></_></weakClassifiers></_>
    <!-- stage 4 -->
    <_>
      <maxWeakCount>4</maxWeakCount>
      <stageThreshold>-6.5145140886306763e-01</stageThreshold>
      <weakClassifiers>
        <_>
          <internalNodes>
            0 -1 30 -9.9286646582186222e-04</internalNodes>
          <leafValues>
            5.1380228996276855e-01 -7.3589664697647095e-01</leafValues></_>
        <_>
          <internalNodes>
            0 -1 17 1.0530473664402962e-02</internalNodes>
          <leafValues>
            -6.8543952703475952e-01 6.5648156404495239e-01</leafValues></_>
        <_>
          <internalNodes>
            0 -1 14 3.8070846349000931e-03</internalNodes>
          <leafValues>
            -9.4639533758163452e-01 3.5631358623504639e-01</leafValues></_>
        <_>
          <internalNodes>
            0 -1 37 -3.0642722267657518e-03</internalNodes>
          <leafValues>
            4.6658116579055786e-01 -7.7111703157424927e-01</leafValues></_></weakClassifiers></_>
    <!-- stage 5 -->
    <_>
      <maxWeakCount>4</maxWeakCount>
      <stageThreshold>-1.1497323513031006e+00</stageThreshold>
      <weakClassifiers>
        <_>
          <internalNodes>
            0 -1 39 -1.8498905774322338e-05</internalNodes>
          <leafValues>
            -8.6507326364517212e-01 3.7628319859504700e-01</leafValues></_>
        <_>
          <internalNodes>
            0 -1 15 8.9257890358567238e-03</internalNodes>
          <leafValues>
            -8.6718028783798218e-01 3.6079296469688416e-01</leafValues></_>
        <_>
          <internalNodes>
            0 -1 1 -2.0386802134453319e-05</internalNodes>
          <leafValues>
            2.7314430475234985e-01 -9.4673836231231689e-01</leafValues></_>
        <_>
          <internalNodes>
            0 -1 24 1.3520843349397182e-03</internalNodes>
          <leafValues>
            -8.8613444566726685e-01 3.0937686562538147e-01</leafValues></_></weakClassifiers></_>
    <!-- stage 6 -->
    <_>
      <maxWeakCount>5</maxWeakCount>
      <stageThreshold>-4.9325257539749146e-01</stageThreshold>
      <weakClassifiers>
        <_>
          <internalNodes>
            0 -1 18 -8.0971997231245041e-03</internalNodes>
          <leafValues>
            6.9120287895202637e-01 -6.2326574325561523e-01</leafValues></_>
        <_>
          <internalNodes>
            0 -1 26 -3.6965007893741131e-03</internalNodes>
          <leafValues>
            7.9765242338180542e-01 -4.6085703372955322e-01</leafValues></_>
        <_>
          <internalNodes>
            0 -1 20 -2.1769283339381218e-03</internalNodes>
          <leafValues>
            6.7387920618057251e-01 -4.8124170303344727e-01</leafValues></_>
        <_>
          <internalNodes>
            0 -1 28 -5.2916751883458346e-05</internalNodes>
          <leafValues>
            -9.8911470174789429e-01 3.3509701490402222e-01</leafValues></_>
        <_>
          <internalNodes>
            0 -1 8 -2.6542083360254765e-03</internalNodes>
          <leafValues>
            7.6213306188583374e-01 -4.1810604929924011e-01</leafValues></_></weakClassifiers></_>
    <!-- stage 7 -->
    <_>
      <maxWeakCount>4</maxWeakCount>
      <stageThreshold>-9.1175222396850586e-01</stageThreshold>
      <weakClassifiers>
        <_>
          <internalNodes>
            0 -1 12 1.5231264755129814e-02</internalNodes>
          <leafValues>
            -7.0877534151077271e-01 4.4367417693138123e-01</leafValues></_>
        <_>
          <internalNodes>
            0 -1 32 2.7244123630225658e-03</internalNodes>
          <leafValues>
            -7.3020118474960327e-01 4.5551156997680664e-01</leafValues></_>
        <_>
          <internalNodes>
            0 -1 13 -1.0059677879326046e-04</internalNodes>
          <leafValues>
            -9.5409595966339111e-01 2.8935894370079041e-01</leafValues></_>
        <_>
          <internalNodes>
            0 -1 13 5.0397917220834643e-05</internalNodes>
          <leafValues>
            3.3682546019554138e-01 -9.4784736633300781e-01</leafValues></_></weakClassifiers></_>
    <!-- stage 8 -->
    <_>
      <maxWeakCount>4</maxWeakCount>
      <stageThreshold>-7.9331213235855103e-01</stageThreshold>
      <weakClassifiers>
        <_>
          <internalNodes>
            0 -1 34 7.2443333920091391e-04</internalNodes>
          <leafValues>
            -6.6516381502151489e-01 4.9330782890319824e-01</leafValues></_>
        <_>
          <internalNodes>
            0 -1 27 1.9278430045233108e-05</internalNodes>
          <leafValues>
            3.0921208858489990e-01 -9.5132035017013550e-01</leafValues></_>
        <_>
          <internalNodes>
            0 -1 19 4.5320186764001846e-03</internalNodes>
          <leafValues>
            -6.2579387426376343e-01 4.7346857190132141e-01</leafValues></_>
        <_>
          <internalNodes>
            0 -1 31 -1.8805874788085930e-05</internalNodes>
          <leafValues>
            -9.0916877985000610e-01 3.4970343112945557e-01</leafValues></_></weakClassifiers></_>
    <!-- stage 9 -->
    <_>
      <maxWeakCount>4</maxWeakCount>
      <stageThreshold>-1.1739292144775391e+00</stageThreshold>
      <weakClassifiers>
        <_>
          <internalNodes>
            0 -1 21 -1.1659421958029270e-02</internalNodes>
          <leafValues>
            2.7266710996627808e-01 -8.3646225929260254e-01</leafValues></_>
        <_>
          <internalNodes>
            0 -1 2 1.7821561545133591e-02</internalNodes>
          <leafValues>
            -8.8319665193557739e-01 3.0162501335144043e-01</leafValues></_>
        <_>
          <internalNodes>
            0 -1 3 5.0141468818765134e-05</internalNodes>
          <leafValues>
            2.4616223573684692e-01 -1.</leafValues></_>
        <_>
          <internalNodes>
            0 -1 0 -2.2878364688949659e-05</internalNodes>
          <leafValues>
            -9.7364312410354614e-01 2.9956746101379395e-01</leafValues></_></weakClassifiers></_>
    <!-- stage 10 -->
    <_>
      <maxWeakCount>3</maxWeakCount>
      <stageThreshold>-4.6618944406509399e-01</stageThreshold>
      <weakClassifiers>
        <_>
          <internalNodes>
            0 -1 40 -2.6385035016573966e-04</internalNodes>
          <leafValues>
            2.1921181678771973e-01 -8.7194842100143433e-01</leafValues></_>
        <_>
          <internalNodes>
            0 -1 11 -3.4379283897578716e-04</internalNodes>
          <leafValues>
            2.8712892532348633e-01 -9.0815657377243042e-01</leafValues></_>
        <_>
          <internalNodes>
            0 -1 35 1.9441860786173493e-05</internalNodes>
          <leafValues>
            2.2275528311729431e-01 -9.9872303009033203e-01</leafValues></_></weakClassifiers></_>
    <!-- stage 11 -->
    <_>
      <maxWeakCount>2</maxWeakCount>
      <stageThreshold>-3.3909133076667786e-01</stageThreshold>
      <weakClassifiers>
        <_>
          <internalNodes>
            0 -1 35 -2.0851304725511000e-05</internalNodes>
          <leafValues>
            -8.2177507877349854e-01 4.1957512497901917e-01</leafValues></_>
        <_>
          <internalNodes>
            0 -1 4 1.8369410099694505e-05</internalNodes>
          <leafValues>
            4.8268371820449829e-01 -7.0596426725387573e-01</leafValues></_></weakClassifiers></_>
    <!-- stage 12 -->
    <_>
      <maxWeakCount>3</maxWeakCount>
      <stageThreshold>-1.2743937969207764e+00</stageThreshold>
      <weakClassifiers>
        <_>
          <internalNodes>
            0 -1 5 2.4325173581019044e-04</internalNodes>
          <leafValues>
            -9.5073425769805908e-01 2.4969770014286041e-01</leafValues></_>
        <_>
          <internalNodes>
            0 -1 38 -3.0935709364712238e-03</internalNodes>
          <leafValues>
            3.5848501324653625e-01 -7.1829432249069214e-01</leafValues></_>
        <_>
          <internalNodes>
            0 -1 9 -3.6950936191715300e-05</internalNodes>
          <leafValues>
            3.3626666665077209e-01 -8.0579721927642822e-01</leafValues></_></weakClassifiers></_></stages>
  <features>
    <_>
      <rects>
        <_>
          0 0 1 4 -1.</_>
        <_>
          0 2 1 2 2.</_></rects>
      <tilted>0</tilted></_>
    <_>
      <rects>
        <_>
          0 0 2 6 -1.</_>
        <_>
          0 2 2 2 3.</_></rects>
      <tilted>0</tilted></_>
    <_>
      <rects>
        <_>
          0 0 12 2 -1.</_>
        <_>
          6 0 6 2 2.</_></rects>
      <tilted>0</tilted></_>
    <_>
      <rects>
        <_>
          0 1 1 2 -1.</_>
        <_>
          0 2 1 1 2.</_></rects>
      <tilted>0</tilted></_>
    <_>
      <rects>
        <_>
          0 1 1 4 -1.</_>
        <_>
          0 3 1 2 2.</_></rects>
      <tilted>0</tilted></_>
    <_>
      <rects>
        <_>
          0 1 2 5 -1.</_>
        <_>
          1 1 1 5 2.</_></rects>
      <tilted>0</tilted></_>
    <_>
      <rects>
        <_>
          0 2 8 1 -1.</_>
        <_>
          4 2 4 1 2.</_></rects>
      <tilted>0</tilted></_>
    <_>
      <rects>
        <_>
          0 8 2 16 -1.</_>
        <_>
          0 16 2 8 2.</_></rects>
      <tilted>0</tilted></_>
    <_>
      <rects>
        <_>
          0 9 2 4 -1.</_>
        <_>
          0 9 1 2 2.</_>
        <_>
          1 11 1 2 2.</_></rects>
      <tilted>0</tilted></_>
    <_>
      <rects>
        <_>
          0 16 1 2 -1.</_>
        <_>
          0 17 1 1 2.</_></rects>
      <tilted>0</tilted></_>
    <_>
      <rects>
        <_>
          0 18 6 2 -1.</_>
        <_>
          2 18 2 2 3.</_></rects>
      <tilted>0</tilted></_>
    <_>
      <rects>
        <_>
          0 19 3 2 -1.</_>
        <_>
          1 19 1 2 3.</_></rects>
      <tilted>0</tilted></_>
    <_>
      <rects>
        <_>
          0 20 6 2 -1.</_>
        <_>
          3 20 3 2 2.</_></rects>
      <tilted>0</tilted></_>
    <_>
      <rects>
        <_>
          0 21 1 2 -1.</_>
        <_>
          0 22 1 1 2.</_></rects>
      <tilted>0</tilted></_>
    <_>
      <rects>
        <_>
          1 0 1 8 -1.</_>
        <_>
          1 4 1 4 2.</_></rects>
      <tilted>0</tilted></_>
    <_>
      <rects>
        <_>
          1 0 18 1 -1.</_>
        <_>
          7 0 6 1 3.</_></rects>
      <tilted>0</tilted></_>
    <_>
      <rects>
        <_>
          1 3 1 3 -1.</_>
        <_>
          1 4 1 1 3.</_></rects>
      <tilted>0</tilted></_>
    <_>
      <rects>
        <_>
          2 22 12 1 -1.</_>
        <_>
          6 22 4 1 3.</_></rects>
      <tilted>0</tilted></_>
    <_>
      <rects>
        <_>
          4 20 2 4 -1.</_>
        <_>
          4 22 2 2 2.</_></rects>
      <tilted>0</tilted></_>
    <_>
      <rects>
        <_>
          6 0 11 3 -1.</_>
        <_>
          6 1 11 1 3.</_></rects>
      <tilted>0</tilted></_>
    <_>
      <rects>
        <_>
          7 0 3 4 -1.</_>
        <_>
          8 0 1 4 3.</_></rects>
      <tilted>0</tilted></_>
    <_>
      <rects>
        <_>
          14 22 10 2 -1.</_>
        <_>
          19 22 5 2 2.</_></rects>
      <tilted>0</tilted></_>
    <_>
      <rects>
        <_>
          15 0 3 1 -1.</_>
        <_>
          16 0 1 1 3.</_></rects>
      <tilted>0</tilted></_>
    <_>
      <rects>
        <_>
          15 21 2 3 -1.</_>
        <_>
          15 22 2 1 3.</_></rects>
      <tilted>0</tilted></_>
    <_>
      <rects>
        <_>
          17 0 4 2 -1.</_>
        <_>
          17 1 4 1 2.</_></rects>
      <tilted>0</tilted></_>
    <_>
      <rects>
        <_>
          18 0 3 4 -1.</_>
        <_>
          18 2 3 2 2.</_></rects>
      <tilted>0</tilted></_>
    <_>
      <rects>
        <_>
          18 21 2 2 -1.</_>
        <_>
          18 22 2 1 2.</_></rects>
      <tilted>0</tilted></_>
    <_>
      <rects>
        <_>
          19 0 2 1 -1.</_>
        <_>
          20 0 1 1 2.</_></rects>
      <tilted>0</tilted></_>
    <_>
      <rects>
        <_>
          19 0 3 1 -1.</_>
        <_>
          20 0 1 1 3.</_></rects>
      <tilted>0</tilted></_>
    <_>
      <rects>
        <_>
          20 2 4 4 -1.</_>
        <_>
          20 4 4 2 2.</_></rects>
      <tilted>0</tilted></_>
    <_>
      <rects>
        <_>
          20 3 2 1 -1.</_>
        <_>
          21 3 1 1 2.</_></rects>
      <tilted>0</tilted></_>
    <_>
      <rects>
        <_>
          21 0 2 1 -1.</_>
        <_>
          22 0 1 1 2.</_></rects>
      <tilted>0</tilted></_>
    <_>
      <rects>
        <_>
          21 2 1 4 -1.</_>
        <_>
          21 4 1 2 2.</_></rects>
      <tilted>0</tilted></_>
    <_>
      <rects>
        <_>
          21 16 3 1 -1.</_>
        <_>
          22 16 1 1 3.</_></rects>
      <tilted>0</tilted></_>
    <_>
      <rects>
        <_>
          21 19 2 2 -1.</_>
        <_>
          21 19 1 1 2.</_>
        <_>
          22 20 1 1 2.</_></rects>
      <tilted>0</tilted></_>
    <_>
      <rects>
        <_>
          22 0 2 2 -1.</_>
        <_>
          23 0 1 2 2.</_></rects>
      <tilted>0</tilted></_>
    <_>
      <rects>
        <_>
          22 16 2 5 -1.</_>
        <_>
          23 16 1 5 2.</_></rects>
      <tilted>0</tilted></_>
    <_>
      <rects>
        <_>
          22 16 2 8 -1.</_>
        <_>
          23 16 1 8 2.</_></rects>
      <tilted>0</tilted></_>
    <_>
      <rects>
        <_>
          22 16 2 4 -1.</_>
        <_>
          22 18 2 2 2.</_></rects>
      <tilted>0</tilted></_>
    <_>
      <rects>
        <_>
          22 22 2 2 -1.</_>
        <_>
          23 22 1 2 2.</_></rects>
      <tilted>0</tilted></_>
    <_>
      <rects>
        <_>
          23 15 1 3 -1.</_>
        <_>
          23 16 1 1 3.</_></rects>
      <tilted>0</tilted></_></features></cascade>
</opencv_storage>
