<?xml version="1.0"?>
<opencv_storage>
<cascade>
  <stageType>BOOST</stageType>
  <featureType>HAAR</featureType>
  <height>24</height>
  <width>24</width>
  <stageParams>
    <boostType>GAB</boostType>
    <minHitRate>9.9500000476837158e-01</minHitRate>
    <maxFalseAlarm>5.0000000000000000e-01</maxFalseAlarm>
    <weightTrimRate>9.4999998807907104e-01</weightTrimRate>
    <maxDepth>1</maxDepth>
    <maxWeakCount>100</maxWeakCount></stageParams>
  <featureParams>
    <maxCatCount>0</maxCatCount>
    <featSize>1</featSize>
    <mode>BASIC</mode></featureParams>
  <stageNum>20</stageNum>
  <stages>
    <!-- stage 0 -->
    <_>
      <maxWeakCount>4</maxWeakCount>
      <stageThreshold>-8.7648314237594604e-01</stageThreshold>
      <weakClassifiers>
        <_>
          <internalNodes>
            0 -1 53 -5.1581572741270065e-02</internalNodes>
          <leafValues>
            3.3443635702133179e-01 -6.8345713615417480e-01</leafValues></_>
        <_>
          <internalNodes>
            0 -1 33 -1.2408147995301988e-05</internalNodes>
          <leafValues>
            2.9188054800033569e-01 -7.6483041048049927e-01</leafValues></_>
        <_>
          <internalNodes>
            0 -1 29 -2.1282656490802765e-01</internalNodes>
          <leafValues>
            4.0726378560066223e-01 -5.5072212219238281e-01</leafValues></_>
        <_>
          <internalNodes>
            0 -1 158 2.4186183873098344e-04</internalNodes>
          <leafValues>
            2.8561308979988098e-01 -8.9217036962509155e-01</leafValues></_></weakClassifiers></_>
    <!-- stage 1 -->
    <_>
      <maxWeakCount>6</maxWeakCount>
      <stageThreshold>-5.4928928613662720e-01</stageThreshold>
      <weakClassifiers>
        <_>
          <internalNodes>
            0 -1 31 -1.6472849529236555e-04</internalNodes>
          <leafValues>
            -8.2897859811782837e-01 1.5287162363529205e-01</leafValues></_>
        <_>
          <internalNodes>
            0 -1 13 -1.4768749679205939e-05</internalNodes>
          <leafValues>
            2.2396895289421082e-01 -7.4768632650375366e-01</leafValues></_>
        <_>
          <internalNodes>
            0 -1 84 -1.8986319191753864e-03</internalNodes>
          <leafValues>
            -7.7567738294601440e-01 3.1740450859069824e-01</leafValues></_>
        <_>
          <internalNodes>
            0 -1 73 -1.9271521270275116e-01</internalNodes>
          <leafValues>
            3.7127694487571716e-01 -5.3126764297485352e-01</leafValues></_>
        <_>
          <internalNodes>
            0 -1 165 -4.0438789874315262e-03</internalNodes>
          <leafValues>
            -8.4823209047317505e-01 2.3571535944938660e-01</leafValues></_>
        <_>
          <internalNodes>
            0 -1 157 -2.9992155032232404e-04</internalNodes>
          <leafValues>
            -7.5744479894638062e-01 2.2707654535770416e-01</leafValues></_></weakClassifiers></_>
    <!-- stage 2 -->
    <_>
      <maxWeakCount>6</maxWeakCount>
      <stageThreshold>-1.3724340200424194e+00</stageThreshold>
      <weakClassifiers>
        <_>
          <internalNodes>
            0 -1 106 -1.2392462849675212e-05</internalNodes>
          <leafValues>
            2.5412476062774658e-01 -6.9744294881820679e-01</leafValues></_>
        <_>
          <internalNodes>
            0 -1 8 3.8501058588735759e-04</internalNodes>
          <leafValues>
            2.2703658044338226e-01 -8.5042285919189453e-01</leafValues></_>
        <_>
          <internalNodes>
            0 -1 7 1.8127128714695573e-04</internalNodes>
          <leafValues>
            1.6136457026004791e-01 -9.3286758661270142e-01</leafValues></_>
        <_>
          <internalNodes>
            0 -1 175 1.1521663516759872e-02</internalNodes>
          <leafValues>
            -3.9065670967102051e-01 4.4249093532562256e-01</leafValues></_>
        <_>
          <internalNodes>
            0 -1 58 1.4234740228857845e-04</internalNodes>
          <leafValues>
            1.9994971156120300e-01 -8.1995433568954468e-01</leafValues></_>
        <_>
          <internalNodes>
            0 -1 80 2.8229196323081851e-04</internalNodes>
          <leafValues>
            1.4721882343292236e-01 -8.8088566064834595e-01</leafValues></_></weakClassifiers></_>
    <!-- stage 3 -->
    <_>
      <maxWeakCount>8</maxWeakCount>
      <stageThreshold>-1.2569046020507813e+00</stageThreshold>
      <weakClassifiers>
        <_>
          <internalNodes>
            0 -1 85 -4.9599155317991972e-04</internalNodes>
          <leafValues>
            3.0491062998771667e-01 -7.4172478914260864e-01</leafValues></_>
        <_>
          <internalNodes>
            0 -1 130 -1.2361039807728957e-05</internalNodes>
          <leafValues>
            2.6106148958206177e-01 -5.9993636608123779e-01</leafValues></_>
        <_>
          <internalNodes>
            0 -1 141 3.0424152500927448e-03</internalNodes>
          <leafValues>
            -3.1329810619354248e-01 5.5950444936752319e-01</leafValues></_>
        <_>
          <internalNodes>
            0 -1 210 1.2293743566260673e-05</internalNodes>
          <leafValues>
            -4.2375409603118896e-01 3.6020460724830627e-01</leafValues></_>
        <_>
          <internalNodes>
            0 -1 197 1.8514419207349420e-04</internalNodes>
          <leafValues>
            2.6670208573341370e-01 -6.9243526458740234e-01</leafValues></_>
        <_>
          <internalNodes>
            0 -1 76 3.3771240850910544e-04</internalNodes>
          <leafValues>
            1.7019578814506531e-01 -7.5112587213516235e-01</leafValues></_>
        <_>
          <internalNodes>
            0 -1 120 -1.2025257456116378e-04</internalNodes>
          <leafValues>
            -6.9178336858749390e-01 1.8420633673667908e-01</leafValues></_>
        <_>
          <internalNodes>
            0 -1 211 1.0667922906577587e-03</internalNodes>
          <leafValues>
            -4.6533697843551636e-01 3.3806750178337097e-01</leafValues></_></weakClassifiers></_>
    <!-- stage 4 -->
    <_>
      <maxWeakCount>9</maxWeakCount>
      <stageThreshold>-1.0938906669616699e+00</stageThreshold>
      <weakClassifiers>
        <_>
          <internalNodes>
            0 -1 182 -1.5288852155208588e-02</internalNodes>
          <leafValues>
            6.9770181179046631e-01 -3.3623918890953064e-01</leafValues></_>
        <_>
          <internalNodes>
            0 -1 213 1.7734499124344438e-04</internalNodes>
          <leafValues>
            2.3111824691295624e-01 -7.8695166110992432e-01</leafValues></_>
        <_>
          <internalNodes>
            0 -1 11 7.1265047881752253e-04</internalNodes>
          <leafValues>
            1.9967168569564819e-01 -7.4155133962631226e-01</leafValues></_>
        <_>
          <internalNodes>
            0 -1 166 -4.1356332600116730e-02</internalNodes>
          <leafValues>
            6.6153258085250854e-01 -2.5258606672286987e-01</leafValues></_>
        <_>
          <internalNodes>
            0 -1 42 -2.4934875546023250e-04</internalNodes>
          <leafValues>
            -7.1123892068862915e-01 2.3923379182815552e-01</leafValues></_>
        <_>
          <internalNodes>
            0 -1 208 -4.0733971400186419e-04</internalNodes>
          <leafValues>
            -8.7204909324645996e-01 1.5732747316360474e-01</leafValues></_>
        <_>
          <internalNodes>
            0 -1 53 -1.9724892452359200e-02</internalNodes>
          <leafValues>
            1.5606571733951569e-01 -7.1591752767562866e-01</leafValues></_>
        <_>
          <internalNodes>
            0 -1 32 1.3585059787146747e-04</internalNodes>
          <leafValues>
            1.7866931855678558e-01 -6.8080949783325195e-01</leafValues></_>
        <_>
          <internalNodes>
            0 -1 17 -1.2361039807728957e-05</internalNodes>
          <leafValues>
            2.2454410791397095e-01 -5.5406618118286133e-01</leafValues></_></weakClassifiers></_>
    <!-- stage 5 -->
    <_>
      <maxWeakCount>8</maxWeakCount>
      <stageThreshold>-1.6557978391647339e+00</stageThreshold>
      <weakClassifiers>
        <_>
          <internalNodes>
            0 -1 104 -1.2361039807728957e-05</internalNodes>
          <leafValues>
            4.0676966309547424e-01 -6.8543541431427002e-01</leafValues></_>
        <_>
          <internalNodes>
            0 -1 55 -1.2397943464748096e-05</internalNodes>
          <leafValues>
            4.1553857922554016e-01 -5.0695258378982544e-01</leafValues></_>
        <_>
          <internalNodes>
            0 -1 3 -8.8029558537527919e-04</internalNodes>
          <leafValues>
            -6.2375104427337646e-01 3.0843114852905273e-01</leafValues></_>
        <_>
          <internalNodes>
            0 -1 3 6.1086437199264765e-04</internalNodes>
          <leafValues>
            2.8116911649703979e-01 -7.5136661529541016e-01</leafValues></_>
        <_>
          <internalNodes>
            0 -1 220 -1.2662962944887113e-05</internalNodes>
          <leafValues>
            3.4656536579132080e-01 -5.9164482355117798e-01</leafValues></_>
        <_>
          <internalNodes>
            0 -1 98 -1.2300015441724099e-05</internalNodes>
          <leafValues>
            4.0993919968605042e-01 -4.6146494150161743e-01</leafValues></_>
        <_>
          <internalNodes>
            0 -1 133 1.3572104275226593e-02</internalNodes>
          <leafValues>
            -2.6169839501380920e-01 7.7021640539169312e-01</leafValues></_>
        <_>
          <internalNodes>
            0 -1 106 -5.5386230815201998e-04</internalNodes>
          <leafValues>
            -8.0608326196670532e-01 2.5577005743980408e-01</leafValues></_></weakClassifiers></_>
    <!-- stage 6 -->
    <_>
      <maxWeakCount>9</maxWeakCount>
      <stageThreshold>-1.1608775854110718e+00</stageThreshold>
      <weakClassifiers>
        <_>
          <internalNodes>
            0 -1 175 1.1038558557629585e-02</internalNodes>
          <leafValues>
            -4.9915531277656555e-01 4.6722847223281860e-01</leafValues></_>
        <_>
          <internalNodes>
            0 -1 106 -2.4604800273664296e-05</internalNodes>
          <leafValues>
            3.2787543535232544e-01 -6.1631286144256592e-01</leafValues></_>
        <_>
          <internalNodes>
            0 -1 2 -4.5262172352522612e-04</internalNodes>
          <leafValues>
            -6.8508452177047729e-01 2.1938610076904297e-01</leafValues></_>
        <_>
          <internalNodes>
            0 -1 155 5.0252303481101990e-02</internalNodes>
          <leafValues>
            -4.2414614558219910e-01 3.5348594188690186e-01</leafValues></_>
        <_>
          <internalNodes>
            0 -1 22 1.3864017091691494e-04</internalNodes>
          <leafValues>
            2.4242345988750458e-01 -6.9109308719635010e-01</leafValues></_>
        <_>
          <internalNodes>
            0 -1 148 2.0027379505336285e-03</internalNodes>
          <leafValues>
            -2.9730978608131409e-01 5.4302734136581421e-01</leafValues></_>
        <_>
          <internalNodes>
            0 -1 156 -2.8003951534628868e-02</internalNodes>
          <leafValues>
            6.7579561471939087e-01 -2.3134554922580719e-01</leafValues></_>
        <_>
          <internalNodes>
            0 -1 219 6.0110993217676878e-04</internalNodes>
          <leafValues>
            1.9607217609882355e-01 -6.6858869791030884e-01</leafValues></_>
        <_>
          <internalNodes>
            0 -1 82 2.4210225092247128e-05</internalNodes>
          <leafValues>
            -4.6398815512657166e-01 2.8554174304008484e-01</leafValues></_></weakClassifiers></_>
    <!-- stage 7 -->
    <_>
      <maxWeakCount>9</maxWeakCount>
      <stageThreshold>-1.0481624603271484e+00</stageThreshold>
      <weakClassifiers>
        <_>
          <internalNodes>
            0 -1 9 -1.2868073099525645e-05</internalNodes>
          <leafValues>
            2.2077184915542603e-01 -7.3961687088012695e-01</leafValues></_>
        <_>
          <internalNodes>
            0 -1 26 -5.3651386406272650e-04</internalNodes>
          <leafValues>
            -7.7834880352020264e-01 1.6542574763298035e-01</leafValues></_>
        <_>
          <internalNodes>
            0 -1 91 -2.1989294327795506e-04</internalNodes>
          <leafValues>
            -5.5122667551040649e-01 2.2727672755718231e-01</leafValues></_>
        <_>
          <internalNodes>
            0 -1 160 1.0665757581591606e-02</internalNodes>
          <leafValues>
            -2.2695659101009369e-01 6.8310797214508057e-01</leafValues></_>
        <_>
          <internalNodes>
            0 -1 195 1.7837880295701325e-04</internalNodes>
          <leafValues>
            -2.3396085202693939e-01 4.7263270616531372e-01</leafValues></_>
        <_>
          <internalNodes>
            0 -1 200 1.3330022920854390e-04</internalNodes>
          <leafValues>
            1.3095961511135101e-01 -9.1855895519256592e-01</leafValues></_>
        <_>
          <internalNodes>
            0 -1 147 -2.7798351366072893e-03</internalNodes>
          <leafValues>
            6.5542298555374146e-01 -1.8925988674163818e-01</leafValues></_>
        <_>
          <internalNodes>
            0 -1 116 -1.2300015441724099e-05</internalNodes>
          <leafValues>
            3.2196626067161560e-01 -3.7726145982742310e-01</leafValues></_>
        <_>
          <internalNodes>
            0 -1 79 -1.2513270121417008e-05</internalNodes>
          <leafValues>
            2.5789257884025574e-01 -4.1401523351669312e-01</leafValues></_></weakClassifiers></_>
    <!-- stage 8 -->
    <_>
      <maxWeakCount>10</maxWeakCount>
      <stageThreshold>-1.1048516035079956e+00</stageThreshold>
      <weakClassifiers>
        <_>
          <internalNodes>
            0 -1 146 1.3929361011832952e-03</internalNodes>
          <leafValues>
            -4.1161099076271057e-01 4.1358345746994019e-01</leafValues></_>
        <_>
          <internalNodes>
            0 -1 96 2.4063429009402171e-05</internalNodes>
          <leafValues>
            -3.2075637578964233e-01 4.0223428606987000e-01</leafValues></_>
        <_>
          <internalNodes>
            0 -1 122 7.8125424683094025e-02</internalNodes>
          <leafValues>
            -3.3250427246093750e-01 4.5632043480873108e-01</leafValues></_>
        <_>
          <internalNodes>
            0 -1 140 1.7279724124819040e-03</internalNodes>
          <leafValues>
            -2.8479000926017761e-01 5.3391212224960327e-01</leafValues></_>
        <_>
          <internalNodes>
            0 -1 212 1.0762016754597425e-03</internalNodes>
          <leafValues>
            -3.4914514422416687e-01 3.3909308910369873e-01</leafValues></_>
        <_>
          <internalNodes>
            0 -1 12 7.6047480106353760e-03</internalNodes>
          <leafValues>
            1.9749455153942108e-01 -8.3094835281372070e-01</leafValues></_>
        <_>
          <internalNodes>
            0 -1 145 9.2351511120796204e-03</internalNodes>
          <leafValues>
            -3.8859695196151733e-01 3.3287554979324341e-01</leafValues></_>
        <_>
          <internalNodes>
            0 -1 186 -3.2643548911437392e-04</internalNodes>
          <leafValues>
            -6.0110092163085938e-01 2.5106629729270935e-01</leafValues></_>
        <_>
          <internalNodes>
            0 -1 75 1.2331050129432697e-05</internalNodes>
          <leafValues>
            -3.4757295250892639e-01 2.9657477140426636e-01</leafValues></_>
        <_>
          <internalNodes>
            0 -1 10 1.2393799806886818e-05</internalNodes>
          <leafValues>
            -3.9225023984909058e-01 2.7989092469215393e-01</leafValues></_></weakClassifiers></_>
    <!-- stage 9 -->
    <_>
      <maxWeakCount>10</maxWeakCount>
      <stageThreshold>-1.1882946491241455e+00</stageThreshold>
      <weakClassifiers>
        <_>
          <internalNodes>
            0 -1 59 -1.4271746622398496e-03</internalNodes>
          <leafValues>
            3.3369505405426025e-01 -4.9335092306137085e-01</leafValues></_>
        <_>
          <internalNodes>
            0 -1 115 -1.6464764485135674e-04</internalNodes>
          <leafValues>
            -5.4491144418716431e-01 2.9339438676834106e-01</leafValues></_>
        <_>
          <internalNodes>
            0 -1 179 9.2720077373087406e-04</internalNodes>
          <leafValues>
            -3.1128001213073730e-01 4.5908018946647644e-01</leafValues></_>
        <_>
          <internalNodes>
            0 -1 46 1.4780729543417692e-04</internalNodes>
          <leafValues>
            2.0029291510581970e-01 -6.8294888734817505e-01</leafValues></_>
        <_>
          <internalNodes>
            0 -1 72 -2.5141123682260513e-02</internalNodes>
          <leafValues>
            2.0847718417644501e-01 -5.7312226295471191e-01</leafValues></_>
        <_>
          <internalNodes>
            0 -1 144 8.1925848498940468e-03</internalNodes>
          <leafValues>
            -2.0562227070331573e-01 5.9613454341888428e-01</leafValues></_>
        <_>
          <internalNodes>
            0 -1 203 -7.7357137342914939e-05</internalNodes>
          <leafValues>
            -5.3495150804519653e-01 2.4814388155937195e-01</leafValues></_>
        <_>
          <internalNodes>
            0 -1 163 2.2797923535108566e-02</internalNodes>
          <leafValues>
            -4.7805839776992798e-01 2.4035421013832092e-01</leafValues></_>
        <_>
          <internalNodes>
            0 -1 109 -2.4198547180276364e-05</internalNodes>
          <leafValues>
            2.5482797622680664e-01 -4.3853059411048889e-01</leafValues></_>
        <_>
          <internalNodes>
            0 -1 135 -1.4277036825660616e-04</internalNodes>
          <leafValues>
            -7.2903031110763550e-01 1.4319203794002533e-01</leafValues></_></weakClassifiers></_>
    <!-- stage 10 -->
    <_>
      <maxWeakCount>13</maxWeakCount>
      <stageThreshold>-1.1424312591552734e+00</stageThreshold>
      <weakClassifiers>
        <_>
          <internalNodes>
            0 -1 124 -2.5728291802806780e-05</internalNodes>
          <leafValues>
            1.6757631301879883e-01 -5.6058990955352783e-01</leafValues></_>
        <_>
          <internalNodes>
            0 -1 194 -2.3882545065134764e-05</internalNodes>
          <leafValues>
            2.9562094807624817e-01 -3.5811960697174072e-01</leafValues></_>
        <_>
          <internalNodes>
            0 -1 41 1.2361039807728957e-05</internalNodes>
          <leafValues>
            -4.8219323158264160e-01 2.0490652322769165e-01</leafValues></_>
        <_>
          <internalNodes>
            0 -1 86 -6.1929384246468544e-03</internalNodes>
          <leafValues>
            3.7616327404975891e-01 -2.5706246495246887e-01</leafValues></_>
        <_>
          <internalNodes>
            0 -1 218 3.5170058254152536e-04</internalNodes>
          <leafValues>
            1.3438506424427032e-01 -6.6751849651336670e-01</leafValues></_>
        <_>
          <internalNodes>
            0 -1 119 -2.4598293748567812e-05</internalNodes>
          <leafValues>
            2.8109490871429443e-01 -3.4267657995223999e-01</leafValues></_>
        <_>
          <internalNodes>
            0 -1 44 2.4081693845801055e-04</internalNodes>
          <leafValues>
            -2.4857982993125916e-01 4.3550956249237061e-01</leafValues></_>
        <_>
          <internalNodes>
            0 -1 27 -1.3558578211814165e-04</internalNodes>
          <leafValues>
            -6.1604338884353638e-01 2.2371850907802582e-01</leafValues></_>
        <_>
          <internalNodes>
            0 -1 183 -4.7235965728759766e-02</internalNodes>
          <leafValues>
            8.3522886037826538e-01 -1.7641490697860718e-01</leafValues></_>
        <_>
          <internalNodes>
            0 -1 113 3.8916529156267643e-03</internalNodes>
          <leafValues>
            -1.7217876017093658e-01 4.9924853444099426e-01</leafValues></_>
        <_>
          <internalNodes>
            0 -1 127 8.8659748435020447e-03</internalNodes>
          <leafValues>
            -2.9281908273696899e-01 3.3203369379043579e-01</leafValues></_>
        <_>
          <internalNodes>
            0 -1 20 9.6843903884291649e-03</internalNodes>
          <leafValues>
            1.6009135544300079e-01 -8.2360160350799561e-01</leafValues></_>
        <_>
          <internalNodes>
            0 -1 21 2.0218252029735595e-04</internalNodes>
          <leafValues>
            1.2997634708881378e-01 -5.8001238107681274e-01</leafValues></_></weakClassifiers></_>
    <!-- stage 11 -->
    <_>
      <maxWeakCount>12</maxWeakCount>
      <stageThreshold>-1.0012404918670654e+00</stageThreshold>
      <weakClassifiers>
        <_>
          <internalNodes>
            0 -1 138 -7.8002181835472584e-03</internalNodes>
          <leafValues>
            5.0501155853271484e-01 -3.1748807430267334e-01</leafValues></_>
        <_>
          <internalNodes>
            0 -1 171 4.2731147259473801e-03</internalNodes>
          <leafValues>
            -2.2154104709625244e-01 5.4191428422927856e-01</leafValues></_>
        <_>
          <internalNodes>
            0 -1 19 -2.4580022000009194e-05</internalNodes>
          <leafValues>
            2.1481472253799438e-01 -5.6050759553909302e-01</leafValues></_>
        <_>
          <internalNodes>
            0 -1 95 2.1797671797685325e-04</internalNodes>
          <leafValues>
            1.8800513446331024e-01 -5.7541394233703613e-01</leafValues></_>
        <_>
          <internalNodes>
            0 -1 30 -2.5165526312775910e-04</internalNodes>
          <leafValues>
            -4.7854885458946228e-01 2.1759797632694244e-01</leafValues></_>
        <_>
          <internalNodes>
            0 -1 150 -9.5714610069990158e-03</internalNodes>
          <leafValues>
            2.5992581248283386e-01 -4.7601920366287231e-01</leafValues></_>
        <_>
          <internalNodes>
            0 -1 35 1.2408147995301988e-05</internalNodes>
          <leafValues>
            -5.7480895519256592e-01 1.5110252797603607e-01</leafValues></_>
        <_>
          <internalNodes>
            0 -1 3 2.8951566491741687e-05</internalNodes>
          <leafValues>
            -3.4483084082603455e-01 2.7360451221466064e-01</leafValues></_>
        <_>
          <internalNodes>
            0 -1 28 3.0509656062349677e-04</internalNodes>
          <leafValues>
            -3.3436021208763123e-01 3.5891610383987427e-01</leafValues></_>
        <_>
          <internalNodes>
            0 -1 217 -5.5861508008092642e-04</internalNodes>
          <leafValues>
            -5.1045322418212891e-01 2.2515359520912170e-01</leafValues></_>
        <_>
          <internalNodes>
            0 -1 176 -8.6168199777603149e-03</internalNodes>
          <leafValues>
            2.4812702834606171e-01 -5.0152033567428589e-01</leafValues></_>
        <_>
          <internalNodes>
            0 -1 189 1.3242988643469289e-05</internalNodes>
          <leafValues>
            -2.7999296784400940e-01 3.5473218560218811e-01</leafValues></_></weakClassifiers></_>
    <!-- stage 12 -->
    <_>
      <maxWeakCount>16</maxWeakCount>
      <stageThreshold>-1.3816564083099365e+00</stageThreshold>
      <weakClassifiers>
        <_>
          <internalNodes>
            0 -1 83 -2.2374493710231036e-04</internalNodes>
          <leafValues>
            9.1091424226760864e-02 -6.9234186410903931e-01</leafValues></_>
        <_>
          <internalNodes>
            0 -1 92 -3.5513509646989405e-04</internalNodes>
          <leafValues>
            -5.1717108488082886e-01 1.8117371201515198e-01</leafValues></_>
        <_>
          <internalNodes>
            0 -1 178 2.1432207431644201e-03</internalNodes>
          <leafValues>
            -3.9871969819068909e-01 2.4747060239315033e-01</leafValues></_>
        <_>
          <internalNodes>
            0 -1 206 6.6983222495764494e-05</internalNodes>
          <leafValues>
            1.0237829387187958e-01 -8.0958563089370728e-01</leafValues></_>
        <_>
          <internalNodes>
            0 -1 3 5.6829984532669187e-04</internalNodes>
          <leafValues>
            1.3259820640087128e-01 -6.7184925079345703e-01</leafValues></_>
        <_>
          <internalNodes>
            0 -1 16 2.6226218324154615e-05</internalNodes>
          <leafValues>
            -3.1486964225769043e-01 2.7636253833770752e-01</leafValues></_>
        <_>
          <internalNodes>
            0 -1 37 -3.4624159336090088e-02</internalNodes>
          <leafValues>
            2.0118565857410431e-01 -4.7353512048721313e-01</leafValues></_>
        <_>
          <internalNodes>
            0 -1 103 2.8569664806127548e-02</internalNodes>
          <leafValues>
            -2.9441720247268677e-01 3.4116011857986450e-01</leafValues></_>
        <_>
          <internalNodes>
            0 -1 34 -2.5644554989412427e-04</internalNodes>
          <leafValues>
            -4.3985027074813843e-01 2.2428472340106964e-01</leafValues></_>
        <_>
          <internalNodes>
            0 -1 102 2.7156417490914464e-04</internalNodes>
          <leafValues>
            -2.3435319960117340e-01 4.0311998128890991e-01</leafValues></_>
        <_>
          <internalNodes>
            0 -1 167 6.4147277735173702e-03</internalNodes>
          <leafValues>
            -1.9288566708564758e-01 6.2049776315689087e-01</leafValues></_>
        <_>
          <internalNodes>
            0 -1 1 1.9550706201698631e-04</internalNodes>
          <leafValues>
            1.2123525142669678e-01 -8.9509963989257813e-01</leafValues></_>
        <_>
          <internalNodes>
            0 -1 125 -1.2293743566260673e-05</internalNodes>
          <leafValues>
            1.4687979221343994e-01 -5.1599264144897461e-01</leafValues></_>
        <_>
          <internalNodes>
            0 -1 82 2.4614777430542745e-05</internalNodes>
          <leafValues>
            -3.4866687655448914e-01 2.3967748880386353e-01</leafValues></_>
        <_>
          <internalNodes>
            0 -1 87 -2.5123793631792068e-02</internalNodes>
          <leafValues>
            5.3178358078002930e-01 -1.8243035674095154e-01</leafValues></_>
        <_>
          <internalNodes>
            0 -1 188 9.9949007562827319e-05</internalNodes>
          <leafValues>
            1.9038219749927521e-01 -5.2351373434066772e-01</leafValues></_></weakClassifiers></_>
    <!-- stage 13 -->
    <_>
      <maxWeakCount>15</maxWeakCount>
      <stageThreshold>-1.3205748796463013e+00</stageThreshold>
      <weakClassifiers>
        <_>
          <internalNodes>
            0 -1 56 -7.9553890973329544e-03</internalNodes>
          <leafValues>
            4.3108639121055603e-01 -3.2005923986434937e-01</leafValues></_>
        <_>
          <internalNodes>
            0 -1 211 9.3874608865007758e-04</internalNodes>
          <leafValues>
            -3.9670664072036743e-01 2.2683753073215485e-01</leafValues></_>
        <_>
          <internalNodes>
            0 -1 18 9.9366734502837062e-05</internalNodes>
          <leafValues>
            1.5611827373504639e-01 -5.8047217130661011e-01</leafValues></_>
        <_>
          <internalNodes>
            0 -1 24 -2.3877160856500268e-05</internalNodes>
          <leafValues>
            2.4874949455261230e-01 -3.8903966546058655e-01</leafValues></_>
        <_>
          <internalNodes>
            0 -1 120 -1.0621321416692808e-04</internalNodes>
          <leafValues>
            -6.1622905731201172e-01 9.0225435793399811e-02</leafValues></_>
        <_>
          <internalNodes>
            0 -1 169 -2.3652112577110529e-04</internalNodes>
          <leafValues>
            -5.4502499103546143e-01 2.1442176401615143e-01</leafValues></_>
        <_>
          <internalNodes>
            0 -1 181 -2.4220422346843407e-05</internalNodes>
          <leafValues>
            3.8631340861320496e-01 -2.5369620323181152e-01</leafValues></_>
        <_>
          <internalNodes>
            0 -1 162 1.7289660172536969e-04</internalNodes>
          <leafValues>
            2.3372143507003784e-01 -4.2487931251525879e-01</leafValues></_>
        <_>
          <internalNodes>
            0 -1 164 -7.2100653778761625e-04</internalNodes>
          <leafValues>
            4.6983036398887634e-01 -1.8612436950206757e-01</leafValues></_>
        <_>
          <internalNodes>
            0 -1 5 -7.2550569893792272e-04</internalNodes>
          <leafValues>
            -3.3406960964202881e-01 2.3596820235252380e-01</leafValues></_>
        <_>
          <internalNodes>
            0 -1 78 -1.0487432591617107e-03</internalNodes>
          <leafValues>
            2.3870944976806641e-01 -3.4884300827980042e-01</leafValues></_>
        <_>
          <internalNodes>
            0 -1 159 2.7114023396279663e-05</internalNodes>
          <leafValues>
            -2.8959980607032776e-01 2.9362040758132935e-01</leafValues></_>
        <_>
          <internalNodes>
            0 -1 50 -1.2392462849675212e-05</internalNodes>
          <leafValues>
            2.4440734088420868e-01 -3.6879917979240417e-01</leafValues></_>
        <_>
          <internalNodes>
            0 -1 139 -3.3041976392269135e-02</internalNodes>
          <leafValues>
            4.1085073351860046e-01 -2.1389351785182953e-01</leafValues></_>
        <_>
          <internalNodes>
            0 -1 69 -3.9586037397384644e-02</internalNodes>
          <leafValues>
            9.4544059038162231e-01 -9.6398353576660156e-02</leafValues></_></weakClassifiers></_>
    <!-- stage 14 -->
    <_>
      <maxWeakCount>18</maxWeakCount>
      <stageThreshold>-1.3379287719726563e+00</stageThreshold>
      <weakClassifiers>
        <_>
          <internalNodes>
            0 -1 62 -3.4513085847720504e-04</internalNodes>
          <leafValues>
            7.4385732412338257e-02 -6.3505560159683228e-01</leafValues></_>
        <_>
          <internalNodes>
            0 -1 136 4.0898844599723816e-04</internalNodes>
          <leafValues>
            -2.7081316709518433e-01 3.4440335631370544e-01</leafValues></_>
        <_>
          <internalNodes>
            0 -1 222 -2.2911293490324169e-04</internalNodes>
          <leafValues>
            -5.2164185047149658e-01 1.6113379597663879e-01</leafValues></_>
        <_>
          <internalNodes>
            0 -1 221 1.4644372276961803e-04</internalNodes>
          <leafValues>
            1.9929745793342590e-01 -5.1432943344116211e-01</leafValues></_>
        <_>
          <internalNodes>
            0 -1 93 -2.0612388849258423e-02</internalNodes>
          <leafValues>
            5.1072877645492554e-01 -1.9823718070983887e-01</leafValues></_>
        <_>
          <internalNodes>
            0 -1 161 7.7973949373699725e-05</internalNodes>
          <leafValues>
            1.5088100731372833e-01 -5.6188887357711792e-01</leafValues></_>
        <_>
          <internalNodes>
            0 -1 68 -1.9220338435843587e-04</internalNodes>
          <leafValues>
            -5.5490010976791382e-01 1.5729521214962006e-01</leafValues></_>
        <_>
          <internalNodes>
            0 -1 142 1.7949570901691914e-03</internalNodes>
          <leafValues>
            -2.8263399004936218e-01 3.0242109298706055e-01</leafValues></_>
        <_>
          <internalNodes>
            0 -1 43 5.9264677111059427e-04</internalNodes>
          <leafValues>
            1.3445597887039185e-01 -6.1281400918960571e-01</leafValues></_>
        <_>
          <internalNodes>
            0 -1 70 4.3620881624519825e-03</internalNodes>
          <leafValues>
            -2.8961062431335449e-01 2.7943530678749084e-01</leafValues></_>
        <_>
          <internalNodes>
            0 -1 4 2.9716535937041044e-04</internalNodes>
          <leafValues>
            -2.9700648784637451e-01 2.7122321724891663e-01</leafValues></_>
        <_>
          <internalNodes>
            0 -1 151 -2.7623452479019761e-04</internalNodes>
          <leafValues>
            -3.8961461186408997e-01 2.5608354806900024e-01</leafValues></_>
        <_>
          <internalNodes>
            0 -1 137 4.1805370710790157e-04</internalNodes>
          <leafValues>
            1.8458054959774017e-01 -4.1348910331726074e-01</leafValues></_>
        <_>
          <internalNodes>
            0 -1 110 1.8679241475183517e-04</internalNodes>
          <leafValues>
            -2.1368834376335144e-01 4.0811270475387573e-01</leafValues></_>
        <_>
          <internalNodes>
            0 -1 65 -2.9650854412466288e-04</internalNodes>
          <leafValues>
            -3.1295090913772583e-01 2.6094084978103638e-01</leafValues></_>
        <_>
          <internalNodes>
            0 -1 60 -1.2341525871306658e-03</internalNodes>
          <leafValues>
            1.7619602382183075e-01 -4.1019773483276367e-01</leafValues></_>
        <_>
          <internalNodes>
            0 -1 179 8.3660223754122853e-04</internalNodes>
          <leafValues>
            -2.9041081666946411e-01 2.9052916169166565e-01</leafValues></_>
        <_>
          <internalNodes>
            0 -1 214 5.2299508824944496e-03</internalNodes>
          <leafValues>
            1.0655101388692856e-01 -8.5607832670211792e-01</leafValues></_></weakClassifiers></_>
    <!-- stage 15 -->
    <_>
      <maxWeakCount>19</maxWeakCount>
      <stageThreshold>-1.3189826011657715e+00</stageThreshold>
      <weakClassifiers>
        <_>
          <internalNodes>
            0 -1 94 1.2928156647831202e-03</internalNodes>
          <leafValues>
            -3.5749208927154541e-01 2.8145694732666016e-01</leafValues></_>
        <_>
          <internalNodes>
            0 -1 64 4.2109325295314193e-04</internalNodes>
          <leafValues>
            1.4079609513282776e-01 -6.2421971559524536e-01</leafValues></_>
        <_>
          <internalNodes>
            0 -1 207 -1.3029619003646076e-04</internalNodes>
          <leafValues>
            -5.6756824254989624e-01 1.5646538138389587e-01</leafValues></_>
        <_>
          <internalNodes>
            0 -1 111 2.5354640092700720e-04</internalNodes>
          <leafValues>
            -2.6745083928108215e-01 3.5195890069007874e-01</leafValues></_>
        <_>
          <internalNodes>
            0 -1 173 -2.6188363335677423e-05</internalNodes>
          <leafValues>
            2.7824026346206665e-01 -3.3211576938629150e-01</leafValues></_>
        <_>
          <internalNodes>
            0 -1 118 1.4664142392575741e-02</internalNodes>
          <leafValues>
            -2.0938372611999512e-01 3.6587342619895935e-01</leafValues></_>
        <_>
          <internalNodes>
            0 -1 180 -2.5235267356038094e-02</internalNodes>
          <leafValues>
            2.0261695981025696e-01 -4.3045735359191895e-01</leafValues></_>
        <_>
          <internalNodes>
            0 -1 45 2.7711107395589352e-04</internalNodes>
          <leafValues>
            1.6464163362979889e-01 -5.1610887050628662e-01</leafValues></_>
        <_>
          <internalNodes>
            0 -1 39 -6.2948081176728010e-04</internalNodes>
          <leafValues>
            -6.2745618820190430e-01 1.1773355305194855e-01</leafValues></_>
        <_>
          <internalNodes>
            0 -1 177 7.8756595030426979e-03</internalNodes>
          <leafValues>
            -1.2962853908538818e-01 8.4519243240356445e-01</leafValues></_>
        <_>
          <internalNodes>
            0 -1 209 1.2493495887611061e-05</internalNodes>
          <leafValues>
            -2.6600816845893860e-01 3.0944013595581055e-01</leafValues></_>
        <_>
          <internalNodes>
            0 -1 63 -2.9688951326534152e-04</internalNodes>
          <leafValues>
            1.4808739721775055e-01 -5.5222994089126587e-01</leafValues></_>
        <_>
          <internalNodes>
            0 -1 215 1.2718918151222169e-04</internalNodes>
          <leafValues>
            1.3904315233230591e-01 -4.8886317014694214e-01</leafValues></_>
        <_>
          <internalNodes>
            0 -1 172 1.3197177395340987e-05</internalNodes>
          <leafValues>
            -3.2711133360862732e-01 2.9711639881134033e-01</leafValues></_>
        <_>
          <internalNodes>
            0 -1 187 -8.7150465697050095e-03</internalNodes>
          <leafValues>
            2.2248402237892151e-01 -3.8915395736694336e-01</leafValues></_>
        <_>
          <internalNodes>
            0 -1 131 -4.2094938457012177e-02</internalNodes>
          <leafValues>
            3.3093941211700439e-01 -2.3468282818794250e-01</leafValues></_>
        <_>
          <internalNodes>
            0 -1 204 -6.3795514870434999e-04</internalNodes>
          <leafValues>
            -4.3484506011009216e-01 2.0338572561740875e-01</leafValues></_>
        <_>
          <internalNodes>
            0 -1 0 -2.4315395421581343e-05</internalNodes>
          <leafValues>
            2.3614339530467987e-01 -3.1056666374206543e-01</leafValues></_>
        <_>
          <internalNodes>
            0 -1 129 2.8130555525422096e-02</internalNodes>
          <leafValues>
            -2.4575604498386383e-01 3.1630694866180420e-01</leafValues></_></weakClassifiers></_>
    <!-- stage 16 -->
    <_>
      <maxWeakCount>18</maxWeakCount>
      <stageThreshold>-1.1549919843673706e+00</stageThreshold>
      <weakClassifiers>
        <_>
          <internalNodes>
            0 -1 117 7.7793292701244354e-02</internalNodes>
          <leafValues>
            -2.5376775860786438e-01 5.9400868415832520e-01</leafValues></_>
        <_>
          <internalNodes>
            0 -1 132 4.0250582969747484e-05</internalNodes>
          <leafValues>
            1.7225508391857147e-01 -5.1746875047683716e-01</leafValues></_>
        <_>
          <internalNodes>
            0 -1 216 -2.5179699878208339e-04</internalNodes>
          <leafValues>
            -4.0135008096694946e-01 1.9286119937896729e-01</leafValues></_>
        <_>
          <internalNodes>
            0 -1 57 -5.7941942941397429e-04</internalNodes>
          <leafValues>
            2.9433709383010864e-01 -2.9543897509574890e-01</leafValues></_>
        <_>
          <internalNodes>
            0 -1 199 -3.9089461788535118e-03</internalNodes>
          <leafValues>
            2.1203866600990295e-01 -3.3186194300651550e-01</leafValues></_>
        <_>
          <internalNodes>
            0 -1 48 1.1320543853798881e-04</internalNodes>
          <leafValues>
            1.8072618544101715e-01 -4.9922442436218262e-01</leafValues></_>
        <_>
          <internalNodes>
            0 -1 224 2.4657409085193649e-05</internalNodes>
          <leafValues>
            -2.6258277893066406e-01 3.1656664609909058e-01</leafValues></_>
        <_>
          <internalNodes>
            0 -1 47 -4.4141727266833186e-04</internalNodes>
          <leafValues>
            -7.9076266288757324e-01 1.2046003341674805e-01</leafValues></_>
        <_>
          <internalNodes>
            0 -1 126 2.0066375145688653e-04</internalNodes>
          <leafValues>
            -2.2256511449813843e-01 3.6323446035385132e-01</leafValues></_>
        <_>
          <internalNodes>
            0 -1 223 -1.9663738203234971e-04</internalNodes>
          <leafValues>
            -5.1181578636169434e-01 1.6076563298702240e-01</leafValues></_>
        <_>
          <internalNodes>
            0 -1 52 1.2513270121417008e-05</internalNodes>
          <leafValues>
            -3.5619026422500610e-01 2.1341727674007416e-01</leafValues></_>
        <_>
          <internalNodes>
            0 -1 99 5.8642774820327759e-03</internalNodes>
          <leafValues>
            -2.4869674444198608e-01 2.7378073334693909e-01</leafValues></_>
        <_>
          <internalNodes>
            0 -1 36 1.5352517948485911e-04</internalNodes>
          <leafValues>
            1.2190991640090942e-01 -5.7188713550567627e-01</leafValues></_>
        <_>
          <internalNodes>
            0 -1 88 1.4979159459471703e-04</internalNodes>
          <leafValues>
            -2.6974171400070190e-01 3.0048343539237976e-01</leafValues></_>
        <_>
          <internalNodes>
            0 -1 74 -2.8647514409385622e-04</internalNodes>
          <leafValues>
            3.8364425301551819e-01 -2.1304963529109955e-01</leafValues></_>
        <_>
          <internalNodes>
            0 -1 38 6.6808401606976986e-04</internalNodes>
          <leafValues>
            1.8336409330368042e-01 -4.3869680166244507e-01</leafValues></_>
        <_>
          <internalNodes>
            0 -1 121 -1.6007855534553528e-01</internalNodes>
          <leafValues>
            2.8102737665176392e-01 -3.2827028632164001e-01</leafValues></_>
        <_>
          <internalNodes>
            0 -1 185 1.9408614025451243e-04</internalNodes>
          <leafValues>
            1.8461121618747711e-01 -4.4231268763542175e-01</leafValues></_></weakClassifiers></_>
    <!-- stage 17 -->
    <_>
      <maxWeakCount>19</maxWeakCount>
      <stageThreshold>-1.2109361886978149e+00</stageThreshold>
      <weakClassifiers>
        <_>
          <internalNodes>
            0 -1 101 -2.4390135877183639e-05</internalNodes>
          <leafValues>
            1.6396395862102509e-01 -4.5909631252288818e-01</leafValues></_>
        <_>
          <internalNodes>
            0 -1 143 4.9057053402066231e-03</internalNodes>
          <leafValues>
            -1.1406347155570984e-01 7.9957902431488037e-01</leafValues></_>
        <_>
          <internalNodes>
            0 -1 23 -6.7983224987983704e-02</internalNodes>
          <leafValues>
            2.8731989860534668e-01 -4.7947242856025696e-01</leafValues></_>
        <_>
          <internalNodes>
            0 -1 14 -7.2385615203529596e-04</internalNodes>
          <leafValues>
            -2.4237164855003357e-01 3.3770558238029480e-01</leafValues></_>
        <_>
          <internalNodes>
            0 -1 168 4.3370304629206657e-03</internalNodes>
          <leafValues>
            -2.0328052341938019e-01 4.7744673490524292e-01</leafValues></_>
        <_>
          <internalNodes>
            0 -1 192 -6.8953481968492270e-04</internalNodes>
          <leafValues>
            -7.0856988430023193e-01 1.2674136459827423e-01</leafValues></_>
        <_>
          <internalNodes>
            0 -1 49 -3.1941558700054884e-03</internalNodes>
          <leafValues>
            3.9178252220153809e-01 -1.9535425305366516e-01</leafValues></_>
        <_>
          <internalNodes>
            0 -1 71 -3.7510732654482126e-03</internalNodes>
          <leafValues>
            1.4990332722663879e-01 -5.3241503238677979e-01</leafValues></_>
        <_>
          <internalNodes>
            0 -1 77 -7.2461267700418830e-04</internalNodes>
          <leafValues>
            -3.1426101922988892e-01 2.8915092349052429e-01</leafValues></_>
        <_>
          <internalNodes>
            0 -1 153 -1.0095660574734211e-02</internalNodes>
          <leafValues>
            3.8466945290565491e-01 -2.5065168738365173e-01</leafValues></_>
        <_>
          <internalNodes>
            0 -1 0 -4.7673430526629090e-04</internalNodes>
          <leafValues>
            -8.4745919704437256e-01 1.2908995151519775e-01</leafValues></_>
        <_>
          <internalNodes>
            0 -1 154 1.3163060881197453e-02</internalNodes>
          <leafValues>
            -1.9706095755100250e-01 4.8011398315429688e-01</leafValues></_>
        <_>
          <internalNodes>
            0 -1 61 -1.2263165444892365e-05</internalNodes>
          <leafValues>
            2.4498656392097473e-01 -3.1952384114265442e-01</leafValues></_>
        <_>
          <internalNodes>
            0 -1 201 1.0889447294175625e-03</internalNodes>
          <leafValues>
            -2.1244919300079346e-01 3.6247026920318604e-01</leafValues></_>
        <_>
          <internalNodes>
            0 -1 112 -3.3015720546245575e-02</internalNodes>
          <leafValues>
            4.5919498801231384e-01 -1.7889530956745148e-01</leafValues></_>
        <_>
          <internalNodes>
            0 -1 114 1.2392462849675212e-05</internalNodes>
          <leafValues>
            -2.1233932673931122e-01 3.4151673316955566e-01</leafValues></_>
        <_>
          <internalNodes>
            0 -1 15 -2.4217981263063848e-05</internalNodes>
          <leafValues>
            3.1738197803497314e-01 -2.1325665712356567e-01</leafValues></_>
        <_>
          <internalNodes>
            0 -1 10 -7.6298412750475109e-05</internalNodes>
          <leafValues>
            -3.7205165624618530e-01 1.9013790786266327e-01</leafValues></_>
        <_>
          <internalNodes>
            0 -1 97 3.9556573028676212e-04</internalNodes>
          <leafValues>
            -1.6021411120891571e-01 5.0376445055007935e-01</leafValues></_></weakClassifiers></_>
    <!-- stage 18 -->
    <_>
      <maxWeakCount>16</maxWeakCount>
      <stageThreshold>-1.1908321380615234e+00</stageThreshold>
      <weakClassifiers>
        <_>
          <internalNodes>
            0 -1 6 -2.3932396288728341e-05</internalNodes>
          <leafValues>
            3.9782714098691940e-02 -6.3926130533218384e-01</leafValues></_>
        <_>
          <internalNodes>
            0 -1 51 1.0277336696162820e-04</internalNodes>
          <leafValues>
            1.2501403689384460e-01 -5.2849435806274414e-01</leafValues></_>
        <_>
          <internalNodes>
            0 -1 202 -1.5246309340000153e-04</internalNodes>
          <leafValues>
            4.3040427565574646e-01 -1.8753011524677277e-01</leafValues></_>
        <_>
          <internalNodes>
            0 -1 205 9.9710276117548347e-05</internalNodes>
          <leafValues>
            8.9245080947875977e-02 -9.3161922693252563e-01</leafValues></_>
        <_>
          <internalNodes>
            0 -1 193 4.5497785322368145e-04</internalNodes>
          <leafValues>
            -2.3515231907367706e-01 3.3061632513999939e-01</leafValues></_>
        <_>
          <internalNodes>
            0 -1 196 -3.2178140827454627e-04</internalNodes>
          <leafValues>
            -7.5094318389892578e-01 8.4851987659931183e-02</leafValues></_>
        <_>
          <internalNodes>
            0 -1 66 -2.4850589397829026e-05</internalNodes>
          <leafValues>
            2.4697208404541016e-01 -2.7179315686225891e-01</leafValues></_>
        <_>
          <internalNodes>
            0 -1 149 -3.0612214468419552e-03</internalNodes>
          <leafValues>
            3.9266499876976013e-01 -1.8948768079280853e-01</leafValues></_>
        <_>
          <internalNodes>
            0 -1 54 3.9620244933757931e-05</internalNodes>
          <leafValues>
            1.3831859827041626e-01 -6.4590770006179810e-01</leafValues></_>
        <_>
          <internalNodes>
            0 -1 107 -1.6046644304879010e-04</internalNodes>
          <leafValues>
            -4.5077663660049438e-01 1.2953633069992065e-01</leafValues></_>
        <_>
          <internalNodes>
            0 -1 184 -9.2059701681137085e-02</internalNodes>
          <leafValues>
            7.9340344667434692e-01 -1.0387260466814041e-01</leafValues></_>
        <_>
          <internalNodes>
            0 -1 90 2.0484575070440769e-03</internalNodes>
          <leafValues>
            1.0614746809005737e-01 -9.2178714275360107e-01</leafValues></_>
        <_>
          <internalNodes>
            0 -1 128 5.5593500292161480e-05</internalNodes>
          <leafValues>
            -2.4334742128849030e-01 2.9751452803611755e-01</leafValues></_>
        <_>
          <internalNodes>
            0 -1 152 -2.6968097314238548e-02</internalNodes>
          <leafValues>
            3.5556164383888245e-01 -2.0177638530731201e-01</leafValues></_>
        <_>
          <internalNodes>
            0 -1 174 5.7934457436203957e-03</internalNodes>
          <leafValues>
            -1.7847242951393127e-01 4.6513411402702332e-01</leafValues></_>
        <_>
          <internalNodes>
            0 -1 40 -1.8840671691577882e-04</internalNodes>
          <leafValues>
            -4.5411866903305054e-01 1.8589071929454803e-01</leafValues></_></weakClassifiers></_>
    <!-- stage 19 -->
    <_>
      <maxWeakCount>18</maxWeakCount>
      <stageThreshold>-1.2478380203247070e+00</stageThreshold>
      <weakClassifiers>
        <_>
          <internalNodes>
            0 -1 134 -9.1684894869104028e-04</internalNodes>
          <leafValues>
            3.3622747659683228e-01 -3.0158463120460510e-01</leafValues></_>
        <_>
          <internalNodes>
            0 -1 41 -6.7527798819355667e-05</internalNodes>
          <leafValues>
            -6.0453343391418457e-01 1.2482523173093796e-01</leafValues></_>
        <_>
          <internalNodes>
            0 -1 170 7.6217502355575562e-03</internalNodes>
          <leafValues>
            -2.9028367996215820e-01 2.7541196346282959e-01</leafValues></_>
        <_>
          <internalNodes>
            0 -1 46 1.4731426199432462e-04</internalNodes>
          <leafValues>
            1.5454298257827759e-01 -6.2691503763198853e-01</leafValues></_>
        <_>
          <internalNodes>
            0 -1 89 1.2600893569469918e-05</internalNodes>
          <leafValues>
            -3.0228036642074585e-01 2.4164754152297974e-01</leafValues></_>
        <_>
          <internalNodes>
            0 -1 198 -2.3960725229699165e-05</internalNodes>
          <leafValues>
            2.9874274134635925e-01 -2.2572457790374756e-01</leafValues></_>
        <_>
          <internalNodes>
            0 -1 81 2.3845110263209790e-04</internalNodes>
          <leafValues>
            1.0848321765661240e-01 -6.5230685472488403e-01</leafValues></_>
        <_>
          <internalNodes>
            0 -1 123 7.5639104470610619e-03</internalNodes>
          <leafValues>
            -2.4188622832298279e-01 3.0690491199493408e-01</leafValues></_>
        <_>
          <internalNodes>
            0 -1 106 -1.2392462849675212e-05</internalNodes>
          <leafValues>
            1.4179868996143341e-01 -4.4689843058586121e-01</leafValues></_>
        <_>
          <internalNodes>
            0 -1 108 -2.4846418201923370e-01</internalNodes>
          <leafValues>
            4.0166527032852173e-01 -2.0335823297500610e-01</leafValues></_>
        <_>
          <internalNodes>
            0 -1 100 1.4148604869842529e-01</internalNodes>
          <leafValues>
            -1.6874586045742035e-01 5.7336843013763428e-01</leafValues></_>
        <_>
          <internalNodes>
            0 -1 105 1.2328810043982230e-05</internalNodes>
          <leafValues>
            -2.4897095561027527e-01 2.9470190405845642e-01</leafValues></_>
        <_>
          <internalNodes>
            0 -1 91 -1.9019632600247860e-04</internalNodes>
          <leafValues>
            -4.4428747892379761e-01 1.6406813263893127e-01</leafValues></_>
        <_>
          <internalNodes>
            0 -1 191 6.5121999941766262e-03</internalNodes>
          <leafValues>
            -3.7623292207717896e-01 2.0295664668083191e-01</leafValues></_>
        <_>
          <internalNodes>
            0 -1 190 -4.5075774192810059e-02</internalNodes>
          <leafValues>
            6.8421828746795654e-01 -1.0309554636478424e-01</leafValues></_>
        <_>
          <internalNodes>
            0 -1 135 -1.2498369324021041e-04</internalNodes>
          <leafValues>
            -5.5789321660995483e-01 1.4380164444446564e-01</leafValues></_>
        <_>
          <internalNodes>
            0 -1 25 1.2293743566260673e-05</internalNodes>
          <leafValues>
            -3.4226444363594055e-01 2.2091804444789886e-01</leafValues></_>
        <_>
          <internalNodes>
            0 -1 67 -2.1869853138923645e-02</internalNodes>
          <leafValues>
            1.8490426242351532e-01 -4.3212687969207764e-01</leafValues></_></weakClassifiers></_></stages>
  <features>
    <_>
      <rects>
        <_>
          0 0 1 3 -1.</_>
        <_>
          0 1 1 1 3.</_></rects>
      <tilted>0</tilted></_>
    <_>
      <rects>
        <_>
          0 0 2 3 -1.</_>
        <_>
          1 0 1 3 2.</_></rects>
      <tilted>0</tilted></_>
    <_>
      <rects>
        <_>
          0 0 1 6 -1.</_>
        <_>
          0 3 1 3 2.</_></rects>
      <tilted>0</tilted></_>
    <_>
      <rects>
        <_>
          0 0 1 9 -1.</_>
        <_>
          0 3 1 3 3.</_></rects>
      <tilted>0</tilted></_>
    <_>
      <rects>
        <_>
          0 0 1 8 -1.</_>
        <_>
          0 4 1 4 2.</_></rects>
      <tilted>0</tilted></_>
    <_>
      <rects>
        <_>
          0 0 2 13 -1.</_>
        <_>
          1 0 1 13 2.</_></rects>
      <tilted>0</tilted></_>
    <_>
      <rects>
        <_>
          0 0 4 1 -1.</_>
        <_>
          2 0 2 1 2.</_></rects>
      <tilted>0</tilted></_>
    <_>
      <rects>
        <_>
          0 0 2 2 -1.</_>
        <_>
          0 1 2 1 2.</_></rects>
      <tilted>0</tilted></_>
    <_>
      <rects>
        <_>
          0 0 6 1 -1.</_>
        <_>
          2 0 2 1 3.</_></rects>
      <tilted>0</tilted></_>
    <_>
      <rects>
        <_>
          0 0 6 1 -1.</_>
        <_>
          3 0 3 1 2.</_></rects>
      <tilted>0</tilted></_>
    <_>
      <rects>
        <_>
          0 0 9 1 -1.</_>
        <_>
          3 0 3 1 3.</_></rects>
      <tilted>0</tilted></_>
    <_>
      <rects>
        <_>
          0 0 6 4 -1.</_>
        <_>
          0 0 3 2 2.</_>
        <_>
          3 2 3 2 2.</_></rects>
      <tilted>0</tilted></_>
    <_>
      <rects>
        <_>
          0 0 3 8 -1.</_>
        <_>
          0 4 3 4 2.</_></rects>
      <tilted>0</tilted></_>
    <_>
      <rects>
        <_>
          0 0 10 1 -1.</_>
        <_>
          5 0 5 1 2.</_></rects>
      <tilted>0</tilted></_>
    <_>
      <rects>
        <_>
          0 0 24 1 -1.</_>
        <_>
          8 0 8 1 3.</_></rects>
      <tilted>0</tilted></_>
    <_>
      <rects>
        <_>
          0 1 2 2 -1.</_>
        <_>
          0 1 1 1 2.</_>
        <_>
          1 2 1 1 2.</_></rects>
      <tilted>0</tilted></_>
    <_>
      <rects>
        <_>
          0 1 1 4 -1.</_>
        <_>
          0 3 1 2 2.</_></rects>
      <tilted>0</tilted></_>
    <_>
      <rects>
        <_>
          0 1 2 3 -1.</_>
        <_>
          1 1 1 3 2.</_></rects>
      <tilted>0</tilted></_>
    <_>
      <rects>
        <_>
          0 1 2 6 -1.</_>
        <_>
          0 1 1 3 2.</_>
        <_>
          1 4 1 3 2.</_></rects>
      <tilted>0</tilted></_>
    <_>
      <rects>
        <_>
          0 1 2 4 -1.</_>
        <_>
          1 1 1 4 2.</_></rects>
      <tilted>0</tilted></_>
    <_>
      <rects>
        <_>
          0 1 1 15 -1.</_>
        <_>
          0 6 1 5 3.</_></rects>
      <tilted>0</tilted></_>
    <_>
      <rects>
        <_>
          0 1 2 10 -1.</_>
        <_>
          0 1 1 5 2.</_>
        <_>
          1 6 1 5 2.</_></rects>
      <tilted>0</tilted></_>
    <_>
      <rects>
        <_>
          0 1 6 2 -1.</_>
        <_>
          2 1 2 2 3.</_></rects>
      <tilted>0</tilted></_>
    <_>
      <rects>
        <_>
          0 1 24 9 -1.</_>
        <_>
          8 1 8 9 3.</_></rects>
      <tilted>0</tilted></_>
    <_>
      <rects>
        <_>
          0 2 2 1 -1.</_>
        <_>
          1 2 1 1 2.</_></rects>
      <tilted>0</tilted></_>
    <_>
      <rects>
        <_>
          0 2 1 4 -1.</_>
        <_>
          0 4 1 2 2.</_></rects>
      <tilted>0</tilted></_>
    <_>
      <rects>
        <_>
          0 2 1 6 -1.</_>
        <_>
          0 5 1 3 2.</_></rects>
      <tilted>0</tilted></_>
    <_>
      <rects>
        <_>
          0 2 1 9 -1.</_>
        <_>
          0 5 1 3 3.</_></rects>
      <tilted>0</tilted></_>
    <_>
      <rects>
        <_>
          0 2 1 12 -1.</_>
        <_>
          0 8 1 6 2.</_></rects>
      <tilted>0</tilted></_>
    <_>
      <rects>
        <_>
          0 2 17 22 -1.</_>
        <_>
          0 13 17 11 2.</_></rects>
      <tilted>0</tilted></_>
    <_>
      <rects>
        <_>
          0 3 2 3 -1.</_>
        <_>
          1 3 1 3 2.</_></rects>
      <tilted>0</tilted></_>
    <_>
      <rects>
        <_>
          0 3 1 9 -1.</_>
        <_>
          0 6 1 3 3.</_></rects>
      <tilted>0</tilted></_>
    <_>
      <rects>
        <_>
          0 3 2 6 -1.</_>
        <_>
          0 3 1 3 2.</_>
        <_>
          1 6 1 3 2.</_></rects>
      <tilted>0</tilted></_>
    <_>
      <rects>
        <_>
          0 3 2 6 -1.</_>
        <_>
          1 3 1 6 2.</_></rects>
      <tilted>0</tilted></_>
    <_>
      <rects>
        <_>
          0 3 4 8 -1.</_>
        <_>
          0 3 2 4 2.</_>
        <_>
          2 7 2 4 2.</_></rects>
      <tilted>0</tilted></_>
    <_>
      <rects>
        <_>
          0 4 1 9 -1.</_>
        <_>
          0 7 1 3 3.</_></rects>
      <tilted>0</tilted></_>
    <_>
      <rects>
        <_>
          0 4 2 6 -1.</_>
        <_>
          0 4 1 3 2.</_>
        <_>
          1 7 1 3 2.</_></rects>
      <tilted>0</tilted></_>
    <_>
      <rects>
        <_>
          0 4 5 20 -1.</_>
        <_>
          0 14 5 10 2.</_></rects>
      <tilted>0</tilted></_>
    <_>
      <rects>
        <_>
          0 5 1 9 -1.</_>
        <_>
          0 8 1 3 3.</_></rects>
      <tilted>0</tilted></_>
    <_>
      <rects>
        <_>
          0 5 3 8 -1.</_>
        <_>
          1 5 1 8 3.</_></rects>
      <tilted>0</tilted></_>
    <_>
      <rects>
        <_>
          0 5 4 6 -1.</_>
        <_>
          0 5 2 3 2.</_>
        <_>
          2 8 2 3 2.</_></rects>
      <tilted>0</tilted></_>
    <_>
      <rects>
        <_>
          0 6 1 6 -1.</_>
        <_>
          0 8 1 2 3.</_></rects>
      <tilted>0</tilted></_>
    <_>
      <rects>
        <_>
          0 6 2 6 -1.</_>
        <_>
          0 8 2 2 3.</_></rects>
      <tilted>0</tilted></_>
    <_>
      <rects>
        <_>
          0 6 4 3 -1.</_>
        <_>
          0 7 4 1 3.</_></rects>
      <tilted>0</tilted></_>
    <_>
      <rects>
        <_>
          0 7 2 6 -1.</_>
        <_>
          0 10 2 3 2.</_></rects>
      <tilted>0</tilted></_>
    <_>
      <rects>
        <_>
          0 8 3 6 -1.</_>
        <_>
          1 8 1 6 3.</_></rects>
      <tilted>0</tilted></_>
    <_>
      <rects>
        <_>
          0 8 2 3 -1.</_>
        <_>
          0 9 2 1 3.</_></rects>
      <tilted>0</tilted></_>
    <_>
      <rects>
        <_>
          0 10 1 3 -1.</_>
        <_>
          0 11 1 1 3.</_></rects>
      <tilted>0</tilted></_>
    <_>
      <rects>
        <_>
          0 10 2 3 -1.</_>
        <_>
          0 11 2 1 3.</_></rects>
      <tilted>0</tilted></_>
    <_>
      <rects>
        <_>
          0 12 4 12 -1.</_>
        <_>
          0 12 2 6 2.</_>
        <_>
          2 18 2 6 2.</_></rects>
      <tilted>0</tilted></_>
    <_>
      <rects>
        <_>
          0 13 1 2 -1.</_>
        <_>
          0 14 1 1 2.</_></rects>
      <tilted>0</tilted></_>
    <_>
      <rects>
        <_>
          0 13 2 4 -1.</_>
        <_>
          0 13 1 2 2.</_>
        <_>
          1 15 1 2 2.</_></rects>
      <tilted>0</tilted></_>
    <_>
      <rects>
        <_>
          0 14 6 2 -1.</_>
        <_>
          0 14 3 1 2.</_>
        <_>
          3 15 3 1 2.</_></rects>
      <tilted>0</tilted></_>
    <_>
      <rects>
        <_>
          0 14 24 10 -1.</_>
        <_>
          0 19 24 5 2.</_></rects>
      <tilted>0</tilted></_>
    <_>
      <rects>
        <_>
          0 17 1 2 -1.</_>
        <_>
          0 18 1 1 2.</_></rects>
      <tilted>0</tilted></_>
    <_>
      <rects>
        <_>
          0 21 1 2 -1.</_>
        <_>
          0 22 1 1 2.</_></rects>
      <tilted>0</tilted></_>
    <_>
      <rects>
        <_>
          0 21 12 1 -1.</_>
        <_>
          4 21 4 1 3.</_></rects>
      <tilted>0</tilted></_>
    <_>
      <rects>
        <_>
          0 21 5 2 -1.</_>
        <_>
          0 22 5 1 2.</_></rects>
      <tilted>0</tilted></_>
    <_>
      <rects>
        <_>
          0 22 2 2 -1.</_>
        <_>
          0 23 2 1 2.</_></rects>
      <tilted>0</tilted></_>
    <_>
      <rects>
        <_>
          0 22 13 2 -1.</_>
        <_>
          0 23 13 1 2.</_></rects>
      <tilted>0</tilted></_>
    <_>
      <rects>
        <_>
          0 22 24 2 -1.</_>
        <_>
          0 23 24 1 2.</_></rects>
      <tilted>0</tilted></_>
    <_>
      <rects>
        <_>
          1 0 2 3 -1.</_>
        <_>
          1 1 2 1 3.</_></rects>
      <tilted>0</tilted></_>
    <_>
      <rects>
        <_>
          1 0 10 1 -1.</_>
        <_>
          6 0 5 1 2.</_></rects>
      <tilted>0</tilted></_>
    <_>
      <rects>
        <_>
          1 1 2 19 -1.</_>
        <_>
          2 1 1 19 2.</_></rects>
      <tilted>0</tilted></_>
    <_>
      <rects>
        <_>
          1 3 1 6 -1.</_>
        <_>
          1 5 1 2 3.</_></rects>
      <tilted>0</tilted></_>
    <_>
      <rects>
        <_>
          1 3 6 6 -1.</_>
        <_>
          3 3 2 6 3.</_></rects>
      <tilted>0</tilted></_>
    <_>
      <rects>
        <_>
          1 3 4 3 -1.</_>
        <_>
          1 4 4 1 3.</_></rects>
      <tilted>0</tilted></_>
    <_>
      <rects>
        <_>
          1 3 6 18 -1.</_>
        <_>
          1 12 6 9 2.</_></rects>
      <tilted>0</tilted></_>
    <_>
      <rects>
        <_>
          1 4 2 6 -1.</_>
        <_>
          1 6 2 2 3.</_></rects>
      <tilted>0</tilted></_>
    <_>
      <rects>
        <_>
          1 4 2 10 -1.</_>
        <_>
          1 9 2 5 2.</_></rects>
      <tilted>0</tilted></_>
    <_>
      <rects>
        <_>
          1 6 12 6 -1.</_>
        <_>
          1 8 12 2 3.</_></rects>
      <tilted>0</tilted></_>
    <_>
      <rects>
        <_>
          1 8 1 16 -1.</_>
        <_>
          1 16 1 8 2.</_></rects>
      <tilted>0</tilted></_>
    <_>
      <rects>
        <_>
          1 8 8 16 -1.</_>
        <_>
          1 16 8 8 2.</_></rects>
      <tilted>0</tilted></_>
    <_>
      <rects>
        <_>
          1 8 23 16 -1.</_>
        <_>
          1 16 23 8 2.</_></rects>
      <tilted>0</tilted></_>
    <_>
      <rects>
        <_>
          1 9 1 9 -1.</_>
        <_>
          1 12 1 3 3.</_></rects>
      <tilted>0</tilted></_>
    <_>
      <rects>
        <_>
          1 10 2 2 -1.</_>
        <_>
          1 10 1 1 2.</_>
        <_>
          2 11 1 1 2.</_></rects>
      <tilted>0</tilted></_>
    <_>
      <rects>
        <_>
          1 10 2 14 -1.</_>
        <_>
          2 10 1 14 2.</_></rects>
      <tilted>0</tilted></_>
    <_>
      <rects>
        <_>
          1 13 1 6 -1.</_>
        <_>
          1 16 1 3 2.</_></rects>
      <tilted>0</tilted></_>
    <_>
      <rects>
        <_>
          1 13 2 11 -1.</_>
        <_>
          2 13 1 11 2.</_></rects>
      <tilted>0</tilted></_>
    <_>
      <rects>
        <_>
          1 14 1 2 -1.</_>
        <_>
          1 15 1 1 2.</_></rects>
      <tilted>0</tilted></_>
    <_>
      <rects>
        <_>
          1 16 1 4 -1.</_>
        <_>
          1 18 1 2 2.</_></rects>
      <tilted>0</tilted></_>
    <_>
      <rects>
        <_>
          2 0 3 3 -1.</_>
        <_>
          3 0 1 3 3.</_></rects>
      <tilted>0</tilted></_>
    <_>
      <rects>
        <_>
          2 0 6 1 -1.</_>
        <_>
          4 0 2 1 3.</_></rects>
      <tilted>0</tilted></_>
    <_>
      <rects>
        <_>
          2 0 6 2 -1.</_>
        <_>
          5 0 3 2 2.</_></rects>
      <tilted>0</tilted></_>
    <_>
      <rects>
        <_>
          2 0 8 1 -1.</_>
        <_>
          6 0 4 1 2.</_></rects>
      <tilted>0</tilted></_>
    <_>
      <rects>
        <_>
          2 0 8 2 -1.</_>
        <_>
          6 0 4 2 2.</_></rects>
      <tilted>0</tilted></_>
    <_>
      <rects>
        <_>
          2 0 12 8 -1.</_>
        <_>
          2 0 6 4 2.</_>
        <_>
          8 4 6 4 2.</_></rects>
      <tilted>0</tilted></_>
    <_>
      <rects>
        <_>
          2 0 22 4 -1.</_>
        <_>
          2 0 11 2 2.</_>
        <_>
          13 2 11 2 2.</_></rects>
      <tilted>0</tilted></_>
    <_>
      <rects>
        <_>
          2 6 1 6 -1.</_>
        <_>
          2 9 1 3 2.</_></rects>
      <tilted>0</tilted></_>
    <_>
      <rects>
        <_>
          2 11 6 2 -1.</_>
        <_>
          2 11 3 1 2.</_>
        <_>
          5 12 3 1 2.</_></rects>
      <tilted>0</tilted></_>
    <_>
      <rects>
        <_>
          3 0 6 1 -1.</_>
        <_>
          6 0 3 1 2.</_></rects>
      <tilted>0</tilted></_>
    <_>
      <rects>
        <_>
          3 0 9 1 -1.</_>
        <_>
          6 0 3 1 3.</_></rects>
      <tilted>0</tilted></_>
    <_>
      <rects>
        <_>
          3 0 9 2 -1.</_>
        <_>
          6 0 3 2 3.</_></rects>
      <tilted>0</tilted></_>
    <_>
      <rects>
        <_>
          3 0 14 6 -1.</_>
        <_>
          3 0 7 3 2.</_>
        <_>
          10 3 7 3 2.</_></rects>
      <tilted>0</tilted></_>
    <_>
      <rects>
        <_>
          3 1 1 9 -1.</_>
        <_>
          3 4 1 3 3.</_></rects>
      <tilted>0</tilted></_>
    <_>
      <rects>
        <_>
          3 1 3 5 -1.</_>
        <_>
          4 1 1 5 3.</_></rects>
      <tilted>0</tilted></_>
    <_>
      <rects>
        <_>
          3 2 1 2 -1.</_>
        <_>
          3 3 1 1 2.</_></rects>
      <tilted>0</tilted></_>
    <_>
      <rects>
        <_>
          3 3 1 3 -1.</_>
        <_>
          3 4 1 1 3.</_></rects>
      <tilted>0</tilted></_>
    <_>
      <rects>
        <_>
          3 5 2 1 -1.</_>
        <_>
          4 5 1 1 2.</_></rects>
      <tilted>0</tilted></_>
    <_>
      <rects>
        <_>
          3 5 21 6 -1.</_>
        <_>
          3 7 21 2 3.</_></rects>
      <tilted>0</tilted></_>
    <_>
      <rects>
        <_>
          3 6 10 18 -1.</_>
        <_>
          3 12 10 6 3.</_></rects>
      <tilted>0</tilted></_>
    <_>
      <rects>
        <_>
          3 9 1 3 -1.</_>
        <_>
          3 10 1 1 3.</_></rects>
      <tilted>0</tilted></_>
    <_>
      <rects>
        <_>
          3 9 1 6 -1.</_>
        <_>
          3 12 1 3 2.</_></rects>
      <tilted>0</tilted></_>
    <_>
      <rects>
        <_>
          3 9 16 7 -1.</_>
        <_>
          11 9 8 7 2.</_></rects>
      <tilted>0</tilted></_>
    <_>
      <rects>
        <_>
          3 11 2 2 -1.</_>
        <_>
          4 11 1 2 2.</_></rects>
      <tilted>0</tilted></_>
    <_>
      <rects>
        <_>
          4 0 3 1 -1.</_>
        <_>
          5 0 1 1 3.</_></rects>
      <tilted>0</tilted></_>
    <_>
      <rects>
        <_>
          4 0 2 2 -1.</_>
        <_>
          5 0 1 2 2.</_></rects>
      <tilted>0</tilted></_>
    <_>
      <rects>
        <_>
          4 0 9 1 -1.</_>
        <_>
          7 0 3 1 3.</_></rects>
      <tilted>0</tilted></_>
    <_>
      <rects>
        <_>
          4 2 20 16 -1.</_>
        <_>
          4 10 20 8 2.</_></rects>
      <tilted>0</tilted></_>
    <_>
      <rects>
        <_>
          4 3 2 1 -1.</_>
        <_>
          5 3 1 1 2.</_></rects>
      <tilted>0</tilted></_>
    <_>
      <rects>
        <_>
          4 5 2 2 -1.</_>
        <_>
          5 5 1 2 2.</_></rects>
      <tilted>0</tilted></_>
    <_>
      <rects>
        <_>
          4 5 1 8 -1.</_>
        <_>
          4 9 1 4 2.</_></rects>
      <tilted>0</tilted></_>
    <_>
      <rects>
        <_>
          4 6 2 14 -1.</_>
        <_>
          4 13 2 7 2.</_></rects>
      <tilted>0</tilted></_>
    <_>
      <rects>
        <_>
          4 7 20 3 -1.</_>
        <_>
          4 8 20 1 3.</_></rects>
      <tilted>0</tilted></_>
    <_>
      <rects>
        <_>
          4 13 1 2 -1.</_>
        <_>
          4 14 1 1 2.</_></rects>
      <tilted>0</tilted></_>
    <_>
      <rects>
        <_>
          5 0 4 1 -1.</_>
        <_>
          7 0 2 1 2.</_></rects>
      <tilted>0</tilted></_>
    <_>
      <rects>
        <_>
          5 1 2 1 -1.</_>
        <_>
          6 1 1 1 2.</_></rects>
      <tilted>0</tilted></_>
    <_>
      <rects>
        <_>
          5 2 8 22 -1.</_>
        <_>
          5 2 4 11 2.</_>
        <_>
          9 13 4 11 2.</_></rects>
      <tilted>0</tilted></_>
    <_>
      <rects>
        <_>
          5 4 18 6 -1.</_>
        <_>
          5 6 18 2 3.</_></rects>
      <tilted>0</tilted></_>
    <_>
      <rects>
        <_>
          5 14 3 1 -1.</_>
        <_>
          6 14 1 1 3.</_></rects>
      <tilted>0</tilted></_>
    <_>
      <rects>
        <_>
          6 0 6 1 -1.</_>
        <_>
          8 0 2 1 3.</_></rects>
      <tilted>0</tilted></_>
    <_>
      <rects>
        <_>
          6 8 18 14 -1.</_>
        <_>
          6 15 18 7 2.</_></rects>
      <tilted>0</tilted></_>
    <_>
      <rects>
        <_>
          6 9 18 9 -1.</_>
        <_>
          15 9 9 9 2.</_></rects>
      <tilted>0</tilted></_>
    <_>
      <rects>
        <_>
          6 11 10 4 -1.</_>
        <_>
          11 11 5 4 2.</_></rects>
      <tilted>0</tilted></_>
    <_>
      <rects>
        <_>
          7 0 4 1 -1.</_>
        <_>
          9 0 2 1 2.</_></rects>
      <tilted>0</tilted></_>
    <_>
      <rects>
        <_>
          7 0 3 2 -1.</_>
        <_>
          7 1 3 1 2.</_></rects>
      <tilted>0</tilted></_>
    <_>
      <rects>
        <_>
          7 4 2 2 -1.</_>
        <_>
          8 4 1 2 2.</_></rects>
      <tilted>0</tilted></_>
    <_>
      <rects>
        <_>
          7 8 14 6 -1.</_>
        <_>
          7 10 14 2 3.</_></rects>
      <tilted>0</tilted></_>
    <_>
      <rects>
        <_>
          7 10 2 1 -1.</_>
        <_>
          8 10 1 1 2.</_></rects>
      <tilted>0</tilted></_>
    <_>
      <rects>
        <_>
          7 11 12 7 -1.</_>
        <_>
          13 11 6 7 2.</_></rects>
      <tilted>0</tilted></_>
    <_>
      <rects>
        <_>
          8 0 3 2 -1.</_>
        <_>
          8 1 3 1 2.</_></rects>
      <tilted>0</tilted></_>
    <_>
      <rects>
        <_>
          8 0 16 12 -1.</_>
        <_>
          8 4 16 4 3.</_></rects>
      <tilted>0</tilted></_>
    <_>
      <rects>
        <_>
          8 1 3 1 -1.</_>
        <_>
          9 1 1 1 3.</_></rects>
      <tilted>0</tilted></_>
    <_>
      <rects>
        <_>
          8 1 12 1 -1.</_>
        <_>
          14 1 6 1 2.</_></rects>
      <tilted>0</tilted></_>
    <_>
      <rects>
        <_>
          8 8 3 2 -1.</_>
        <_>
          9 8 1 2 3.</_></rects>
      <tilted>0</tilted></_>
    <_>
      <rects>
        <_>
          9 0 2 1 -1.</_>
        <_>
          10 0 1 1 2.</_></rects>
      <tilted>0</tilted></_>
    <_>
      <rects>
        <_>
          9 0 2 10 -1.</_>
        <_>
          10 0 1 10 2.</_></rects>
      <tilted>0</tilted></_>
    <_>
      <rects>
        <_>
          9 0 12 1 -1.</_>
        <_>
          13 0 4 1 3.</_></rects>
      <tilted>0</tilted></_>
    <_>
      <rects>
        <_>
          9 2 15 3 -1.</_>
        <_>
          9 3 15 1 3.</_></rects>
      <tilted>0</tilted></_>
    <_>
      <rects>
        <_>
          9 6 12 5 -1.</_>
        <_>
          13 6 4 5 3.</_></rects>
      <tilted>0</tilted></_>
    <_>
      <rects>
        <_>
          9 10 3 5 -1.</_>
        <_>
          10 10 1 5 3.</_></rects>
      <tilted>0</tilted></_>
    <_>
      <rects>
        <_>
          9 10 11 3 -1.</_>
        <_>
          9 11 11 1 3.</_></rects>
      <tilted>0</tilted></_>
    <_>
      <rects>
        <_>
          9 10 15 3 -1.</_>
        <_>
          9 11 15 1 3.</_></rects>
      <tilted>0</tilted></_>
    <_>
      <rects>
        <_>
          9 12 3 2 -1.</_>
        <_>
          10 12 1 2 3.</_></rects>
      <tilted>0</tilted></_>
    <_>
      <rects>
        <_>
          10 0 8 1 -1.</_>
        <_>
          14 0 4 1 2.</_></rects>
      <tilted>0</tilted></_>
    <_>
      <rects>
        <_>
          10 5 6 9 -1.</_>
        <_>
          10 8 6 3 3.</_></rects>
      <tilted>0</tilted></_>
    <_>
      <rects>
        <_>
          10 10 14 2 -1.</_>
        <_>
          10 11 14 1 2.</_></rects>
      <tilted>0</tilted></_>
    <_>
      <rects>
        <_>
          10 11 3 3 -1.</_>
        <_>
          11 11 1 3 3.</_></rects>
      <tilted>0</tilted></_>
    <_>
      <rects>
        <_>
          10 11 14 2 -1.</_>
        <_>
          10 11 7 1 2.</_>
        <_>
          17 12 7 1 2.</_></rects>
      <tilted>0</tilted></_>
    <_>
      <rects>
        <_>
          10 11 11 3 -1.</_>
        <_>
          10 12 11 1 3.</_></rects>
      <tilted>0</tilted></_>
    <_>
      <rects>
        <_>
          10 16 14 6 -1.</_>
        <_>
          10 19 14 3 2.</_></rects>
      <tilted>0</tilted></_>
    <_>
      <rects>
        <_>
          11 0 9 2 -1.</_>
        <_>
          14 0 3 2 3.</_></rects>
      <tilted>0</tilted></_>
    <_>
      <rects>
        <_>
          11 0 13 4 -1.</_>
        <_>
          11 2 13 2 2.</_></rects>
      <tilted>0</tilted></_>
    <_>
      <rects>
        <_>
          11 11 13 6 -1.</_>
        <_>
          11 13 13 2 3.</_></rects>
      <tilted>0</tilted></_>
    <_>
      <rects>
        <_>
          12 0 12 1 -1.</_>
        <_>
          16 0 4 1 3.</_></rects>
      <tilted>0</tilted></_>
    <_>
      <rects>
        <_>
          12 0 12 24 -1.</_>
        <_>
          18 0 6 24 2.</_></rects>
      <tilted>0</tilted></_>
    <_>
      <rects>
        <_>
          12 0 12 4 -1.</_>
        <_>
          12 2 12 2 2.</_></rects>
      <tilted>0</tilted></_>
    <_>
      <rects>
        <_>
          13 0 9 1 -1.</_>
        <_>
          16 0 3 1 3.</_></rects>
      <tilted>0</tilted></_>
    <_>
      <rects>
        <_>
          13 0 10 2 -1.</_>
        <_>
          13 1 10 1 2.</_></rects>
      <tilted>0</tilted></_>
    <_>
      <rects>
        <_>
          13 6 2 1 -1.</_>
        <_>
          14 6 1 1 2.</_></rects>
      <tilted>0</tilted></_>
    <_>
      <rects>
        <_>
          13 6 6 2 -1.</_>
        <_>
          16 6 3 2 2.</_></rects>
      <tilted>0</tilted></_>
    <_>
      <rects>
        <_>
          14 0 3 2 -1.</_>
        <_>
          15 0 1 2 3.</_></rects>
      <tilted>0</tilted></_>
    <_>
      <rects>
        <_>
          14 0 6 1 -1.</_>
        <_>
          16 0 2 1 3.</_></rects>
      <tilted>0</tilted></_>
    <_>
      <rects>
        <_>
          14 0 10 24 -1.</_>
        <_>
          19 0 5 24 2.</_></rects>
      <tilted>0</tilted></_>
    <_>
      <rects>
        <_>
          14 1 4 2 -1.</_>
        <_>
          14 1 2 1 2.</_>
        <_>
          16 2 2 1 2.</_></rects>
      <tilted>0</tilted></_>
    <_>
      <rects>
        <_>
          14 2 8 3 -1.</_>
        <_>
          18 2 4 3 2.</_></rects>
      <tilted>0</tilted></_>
    <_>
      <rects>
        <_>
          14 5 10 6 -1.</_>
        <_>
          14 8 10 3 2.</_></rects>
      <tilted>0</tilted></_>
    <_>
      <rects>
        <_>
          15 0 1 9 -1.</_>
        <_>
          15 3 1 3 3.</_></rects>
      <tilted>0</tilted></_>
    <_>
      <rects>
        <_>
          15 0 9 1 -1.</_>
        <_>
          18 0 3 1 3.</_></rects>
      <tilted>0</tilted></_>
    <_>
      <rects>
        <_>
          15 0 9 3 -1.</_>
        <_>
          18 0 3 3 3.</_></rects>
      <tilted>0</tilted></_>
    <_>
      <rects>
        <_>
          15 0 8 8 -1.</_>
        <_>
          15 0 4 4 2.</_>
        <_>
          19 4 4 4 2.</_></rects>
      <tilted>0</tilted></_>
    <_>
      <rects>
        <_>
          15 1 1 9 -1.</_>
        <_>
          15 4 1 3 3.</_></rects>
      <tilted>0</tilted></_>
    <_>
      <rects>
        <_>
          15 3 9 2 -1.</_>
        <_>
          15 4 9 1 2.</_></rects>
      <tilted>0</tilted></_>
    <_>
      <rects>
        <_>
          16 0 4 2 -1.</_>
        <_>
          18 0 2 2 2.</_></rects>
      <tilted>0</tilted></_>
    <_>
      <rects>
        <_>
          16 0 3 9 -1.</_>
        <_>
          16 3 3 3 3.</_></rects>
      <tilted>0</tilted></_>
    <_>
      <rects>
        <_>
          16 0 8 10 -1.</_>
        <_>
          16 0 4 5 2.</_>
        <_>
          20 5 4 5 2.</_></rects>
      <tilted>0</tilted></_>
    <_>
      <rects>
        <_>
          16 0 7 10 -1.</_>
        <_>
          16 5 7 5 2.</_></rects>
      <tilted>0</tilted></_>
    <_>
      <rects>
        <_>
          16 1 2 8 -1.</_>
        <_>
          16 1 1 4 2.</_>
        <_>
          17 5 1 4 2.</_></rects>
      <tilted>0</tilted></_>
    <_>
      <rects>
        <_>
          16 1 8 6 -1.</_>
        <_>
          16 1 4 3 2.</_>
        <_>
          20 4 4 3 2.</_></rects>
      <tilted>0</tilted></_>
    <_>
      <rects>
        <_>
          16 3 1 6 -1.</_>
        <_>
          16 5 1 2 3.</_></rects>
      <tilted>0</tilted></_>
    <_>
      <rects>
        <_>
          16 10 8 14 -1.</_>
        <_>
          16 17 8 7 2.</_></rects>
      <tilted>0</tilted></_>
    <_>
      <rects>
        <_>
          17 0 2 1 -1.</_>
        <_>
          18 0 1 1 2.</_></rects>
      <tilted>0</tilted></_>
    <_>
      <rects>
        <_>
          17 0 4 4 -1.</_>
        <_>
          17 2 4 2 2.</_></rects>
      <tilted>0</tilted></_>
    <_>
      <rects>
        <_>
          17 2 1 22 -1.</_>
        <_>
          17 13 1 11 2.</_></rects>
      <tilted>0</tilted></_>
    <_>
      <rects>
        <_>
          17 2 2 22 -1.</_>
        <_>
          17 13 2 11 2.</_></rects>
      <tilted>0</tilted></_>
    <_>
      <rects>
        <_>
          18 0 6 2 -1.</_>
        <_>
          20 0 2 2 3.</_></rects>
      <tilted>0</tilted></_>
    <_>
      <rects>
        <_>
          18 0 6 4 -1.</_>
        <_>
          18 0 3 2 2.</_>
        <_>
          21 2 3 2 2.</_></rects>
      <tilted>0</tilted></_>
    <_>
      <rects>
        <_>
          18 0 5 12 -1.</_>
        <_>
          18 6 5 6 2.</_></rects>
      <tilted>0</tilted></_>
    <_>
      <rects>
        <_>
          18 1 3 1 -1.</_>
        <_>
          19 1 1 1 3.</_></rects>
      <tilted>0</tilted></_>
    <_>
      <rects>
        <_>
          18 4 2 4 -1.</_>
        <_>
          18 6 2 2 2.</_></rects>
      <tilted>0</tilted></_>
    <_>
      <rects>
        <_>
          18 4 6 20 -1.</_>
        <_>
          18 4 3 10 2.</_>
        <_>
          21 14 3 10 2.</_></rects>
      <tilted>0</tilted></_>
    <_>
      <rects>
        <_>
          18 12 6 12 -1.</_>
        <_>
          21 12 3 12 2.</_></rects>
      <tilted>0</tilted></_>
    <_>
      <rects>
        <_>
          19 0 2 2 -1.</_>
        <_>
          20 0 1 2 2.</_></rects>
      <tilted>0</tilted></_>
    <_>
      <rects>
        <_>
          19 1 2 4 -1.</_>
        <_>
          19 1 1 2 2.</_>
        <_>
          20 3 1 2 2.</_></rects>
      <tilted>0</tilted></_>
    <_>
      <rects>
        <_>
          19 2 2 1 -1.</_>
        <_>
          20 2 1 1 2.</_></rects>
      <tilted>0</tilted></_>
    <_>
      <rects>
        <_>
          19 2 2 2 -1.</_>
        <_>
          19 2 1 1 2.</_>
        <_>
          20 3 1 1 2.</_></rects>
      <tilted>0</tilted></_>
    <_>
      <rects>
        <_>
          20 0 3 1 -1.</_>
        <_>
          21 0 1 1 3.</_></rects>
      <tilted>0</tilted></_>
    <_>
      <rects>
        <_>
          20 0 4 1 -1.</_>
        <_>
          22 0 2 1 2.</_></rects>
      <tilted>0</tilted></_>
    <_>
      <rects>
        <_>
          20 8 2 1 -1.</_>
        <_>
          21 8 1 1 2.</_></rects>
      <tilted>0</tilted></_>
    <_>
      <rects>
        <_>
          21 0 2 12 -1.</_>
        <_>
          21 6 2 6 2.</_></rects>
      <tilted>0</tilted></_>
    <_>
      <rects>
        <_>
          21 0 3 2 -1.</_>
        <_>
          21 1 3 1 2.</_></rects>
      <tilted>0</tilted></_>
    <_>
      <rects>
        <_>
          21 14 2 10 -1.</_>
        <_>
          21 14 1 5 2.</_>
        <_>
          22 19 1 5 2.</_></rects>
      <tilted>0</tilted></_>
    <_>
      <rects>
        <_>
          21 21 2 2 -1.</_>
        <_>
          21 21 1 1 2.</_>
        <_>
          22 22 1 1 2.</_></rects>
      <tilted>0</tilted></_>
    <_>
      <rects>
        <_>
          22 0 1 2 -1.</_>
        <_>
          22 1 1 1 2.</_></rects>
      <tilted>0</tilted></_>
    <_>
      <rects>
        <_>
          22 0 1 4 -1.</_>
        <_>
          22 2 1 2 2.</_></rects>
      <tilted>0</tilted></_>
    <_>
      <rects>
        <_>
          22 0 2 2 -1.</_>
        <_>
          22 1 2 1 2.</_></rects>
      <tilted>0</tilted></_>
    <_>
      <rects>
        <_>
          22 1 1 2 -1.</_>
        <_>
          22 2 1 1 2.</_></rects>
      <tilted>0</tilted></_>
    <_>
      <rects>
        <_>
          22 1 2 6 -1.</_>
        <_>
          22 1 1 3 2.</_>
        <_>
          23 4 1 3 2.</_></rects>
      <tilted>0</tilted></_>
    <_>
      <rects>
        <_>
          22 2 2 2 -1.</_>
        <_>
          23 2 1 2 2.</_></rects>
      <tilted>0</tilted></_>
    <_>
      <rects>
        <_>
          22 3 2 1 -1.</_>
        <_>
          23 3 1 1 2.</_></rects>
      <tilted>0</tilted></_>
    <_>
      <rects>
        <_>
          22 3 2 2 -1.</_>
        <_>
          23 3 1 2 2.</_></rects>
      <tilted>0</tilted></_>
    <_>
      <rects>
        <_>
          22 11 2 13 -1.</_>
        <_>
          23 11 1 13 2.</_></rects>
      <tilted>0</tilted></_>
    <_>
      <rects>
        <_>
          22 12 2 12 -1.</_>
        <_>
          23 12 1 12 2.</_></rects>
      <tilted>0</tilted></_>
    <_>
      <rects>
        <_>
          23 0 1 6 -1.</_>
        <_>
          23 2 1 2 3.</_></rects>
      <tilted>0</tilted></_>
    <_>
      <rects>
        <_>
          23 0 1 10 -1.</_>
        <_>
          23 5 1 5 2.</_></rects>
      <tilted>0</tilted></_>
    <_>
      <rects>
        <_>
          23 1 1 4 -1.</_>
        <_>
          23 3 1 2 2.</_></rects>
      <tilted>0</tilted></_>
    <_>
      <rects>
        <_>
          23 1 1 8 -1.</_>
        <_>
          23 5 1 4 2.</_></rects>
      <tilted>0</tilted></_>
    <_>
      <rects>
        <_>
          23 2 1 12 -1.</_>
        <_>
          23 6 1 4 3.</_></rects>
      <tilted>0</tilted></_>
    <_>
      <rects>
        <_>
          23 4 1 4 -1.</_>
        <_>
          23 6 1 2 2.</_></rects>
      <tilted>0</tilted></_>
    <_>
      <rects>
        <_>
          23 5 1 9 -1.</_>
        <_>
          23 8 1 3 3.</_></rects>
      <tilted>0</tilted></_>
    <_>
      <rects>
        <_>
          23 8 1 2 -1.</_>
        <_>
          23 9 1 1 2.</_></rects>
      <tilted>0</tilted></_>
    <_>
      <rects>
        <_>
          23 8 1 6 -1.</_>
        <_>
          23 10 1 2 3.</_></rects>
      <tilted>0</tilted></_>
    <_>
      <rects>
        <_>
          23 9 1 6 -1.</_>
        <_>
          23 11 1 2 3.</_></rects>
      <tilted>0</tilted></_>
    <_>
      <rects>
        <_>
          23 10 1 6 -1.</_>
        <_>
          23 12 1 2 3.</_></rects>
      <tilted>0</tilted></_>
    <_>
      <rects>
        <_>
          23 13 1 2 -1.</_>
        <_>
          23 14 1 1 2.</_></rects>
      <tilted>0</tilted></_></features></cascade>
</opencv_storage>
